/* Generated by Edge Impulse
 *
 * Permission is hereby granted, free of charge, to any person obtaining a copy
 * of this software and associated documentation files (the "Software"), to deal
 * in the Software without restriction, including without limitation the rights
 * to use, copy, modify, merge, publish, distribute, sublicense, and/or sell
 * copies of the Software, and to permit persons to whom the Software is
 * furnished to do so, subject to the following conditions:
 *
 * The above copyright notice and this permission notice shall be included in
 * all copies or substantial portions of the Software.
 *
 * THE SOFTWARE IS PROVIDED "AS IS", WITHOUT WARRANTY OF ANY KIND, EXPRESS OR
 * IMPLIED, INCLUDING BUT NOT LIMITED TO THE WARRANTIES OF MERCHANTABILITY,
 * FITNESS FOR A PARTICULAR PURPOSE AND NONINFRINGEMENT. IN NO EVENT SHALL THE
 * AUTHORS OR COPYRIGHT HOLDERS BE LIABLE FOR ANY CLAIM, DAMAGES OR OTHER
 * LIABILITY, WHETHER IN AN ACTION OF CONTRACT, TORT OR OTHERWISE, ARISING FROM,
 * OUT OF OR IN CONNECTION WITH THE SOFTWARE OR THE USE OR OTHER DEALINGS IN THE
 * SOFTWARE.
 */
// Generated on: 16.03.2023 23:08:01

#include <stdio.h>
#include <stdlib.h>

#include "edge-impulse-sdk/porting/ei_classifier_porting.h"
#include "edge-impulse-sdk/tensorflow/lite/c/builtin_op_data.h"
#include "edge-impulse-sdk/tensorflow/lite/c/common.h"
#include "edge-impulse-sdk/tensorflow/lite/micro/micro_mutable_op_resolver.h"

#if EI_CLASSIFIER_PRINT_STATE
#if defined(__cplusplus) && EI_C_LINKAGE == 1
extern "C" {
extern void ei_printf(const char* format, ...);
}
#else
extern void ei_printf(const char* format, ...);
#endif
#endif

#if defined __GNUC__
#define ALIGN(X) __attribute__((aligned(X)))
#elif defined _MSC_VER
#define ALIGN(X) __declspec(align(X))
#elif defined __TASKING__
#define ALIGN(X) __align(X)
#endif

#ifndef EI_MAX_SCRATCH_BUFFER_COUNT
#define EI_MAX_SCRATCH_BUFFER_COUNT 4
#endif  // EI_MAX_SCRATCH_BUFFER_COUNT

#ifndef EI_MAX_OVERFLOW_BUFFER_COUNT
#define EI_MAX_OVERFLOW_BUFFER_COUNT 10
#endif  // EI_MAX_OVERFLOW_BUFFER_COUNT

using namespace tflite;
using namespace tflite::ops;
using namespace tflite::ops::micro;

namespace {

constexpr int kTensorArenaSize = 1568;

#if defined(EI_CLASSIFIER_ALLOCATION_STATIC)
uint8_t tensor_arena[kTensorArenaSize] ALIGN(16);
#elif defined(EI_CLASSIFIER_ALLOCATION_STATIC_HIMAX)
#pragma Bss(".tensor_arena")
uint8_t tensor_arena[kTensorArenaSize] ALIGN(16);
#pragma Bss()
#elif defined(EI_CLASSIFIER_ALLOCATION_STATIC_HIMAX_GNU)
uint8_t tensor_arena[kTensorArenaSize] ALIGN(16)
    __attribute__((section(".tensor_arena")));
#else
#define EI_CLASSIFIER_ALLOCATION_HEAP 1
uint8_t* tensor_arena = NULL;
#endif

static uint8_t* tensor_boundary;
static uint8_t* current_location;

template <int SZ, class T>
struct TfArray {
  int sz;
  T elem[SZ];
};
enum used_operators_e { OP_FULLY_CONNECTED, OP_SOFTMAX, OP_LAST };
struct TensorInfo_t {  // subset of TfLiteTensor used for initialization from
                       // constant memory
  TfLiteAllocationType allocation_type;
  TfLiteType type;
  void* data;
  TfLiteIntArray* dims;
  size_t bytes;
  TfLiteQuantization quantization;
};
struct NodeInfo_t {  // subset of TfLiteNode used for initialization from
                     // constant memory
  struct TfLiteIntArray* inputs;
  struct TfLiteIntArray* outputs;
  void* builtin_data;
  used_operators_e used_op_index;
};

TfLiteContext ctx{};
TfLiteTensor tflTensors[14];
TfLiteEvalTensor tflEvalTensors[14];
TfLiteRegistration registrations[OP_LAST];
TfLiteNode tflNodes[5];

const TfArray<2, int> tensor_dimension0 = {2, {1, 1200}};
const TfArray<1, float> quant0_scale = {1,
                                        {
                                            2.3628983497619629,
                                        }};
const TfArray<1, int> quant0_zero = {1, {44}};
const TfLiteAffineQuantization quant0 = {(TfLiteFloatArray*)&quant0_scale,
                                         (TfLiteIntArray*)&quant0_zero, 0};
const ALIGN(16) int8_t tensor_data1[128 * 1200] = {
    -83,  -36,  -43,  28,   -10,  8,    -94,  36,   -75,  12,   -45,  26,
    64,   -63,  -18,  28,   40,   29,   5,    -11,  78,   37,   24,   61,
    25,   -27,  -22,  23,   -82,  25,   -81,  84,   -9,   86,   -93,  37,
    66,   -47,  81,   30,   0,    -88,  -70,  41,   -13,  51,   54,   -63,
    -31,  -79,  92,   68,   -21,  26,   13,   -52,  -28,  46,   54,   -10,
    24,   3,    45,   -27,  21,   -29,  -5,   -95,  59,   67,   -94,  -63,
    -105, 30,   -30,  35,   -84,  -5,   75,   69,   78,   57,   37,   -37,
    -22,  22,   -60,  -43,  -31,  -69,  25,   -47,  72,   22,   28,   92,
    -18,  47,   -36,  -31,  -59,  38,   16,   47,   -59,  -81,  6,    82,
    14,   -24,  71,   -92,  22,   -91,  -52,  -29,  104,  -28,  48,   60,
    19,   -78,  12,   -11,  15,   25,   67,   -17,  -5,   -73,  -60,  21,
    -85,  90,   44,   -68,  -78,  73,   25,   46,   49,   -61,  -98,  92,
    -54,  16,   96,   -94,  -12,  36,   11,   -97,  38,   87,   -99,  94,
    -69,  -83,  -79,  -63,  7,    107,  -38,  40,   -65,  49,   55,   49,
    -95,  -89,  -70,  -64,  -78,  -74,  -7,   25,   -2,   -79,  7,    47,
    16,   -93,  100,  10,   73,   52,   -77,  45,   -86,  -48,  10,   -44,
    72,   -78,  -4,   29,   -79,  80,   -23,  -94,  -77,  2,    9,    4,
    -31,  -27,  -22,  71,   -30,  47,   -10,  16,   -68,  66,   -33,  5,
    3,    -73,  63,   1,    -58,  78,   49,   29,   -42,  -1,   48,   19,
    -56,  -82,  28,   -20,  -62,  89,   -78,  -85,  -40,  -55,  -38,  -72,
    -13,  38,   0,    7,    54,   -15,  42,   -82,  68,   77,   -29,  83,
    69,   20,   -27,  27,   80,   -57,  -8,   -67,  -36,  36,   -7,   5,
    -13,  17,   -62,  67,   -75,  -74,  -50,  -63,  -24,  25,   -36,  30,
    24,   -51,  13,   49,   -83,  64,   -86,  -92,  29,   -49,  33,   8,
    -45,  -12,  59,   35,   -33,  7,    -107, 63,   100,  -73,  75,   22,
    2,    -39,  65,   32,   -25,  -8,   21,   21,   -74,  -32,  -61,  15,
    5,    -21,  -59,  78,   56,   12,   9,    -58,  -46,  33,   -29,  -26,
    -10,  -16,  11,   80,   -23,  68,   -31,  37,   -2,   -18,  18,   -30,
    -58,  -26,  -23,  -69,  -46,  6,    37,   9,    5,    -64,  -28,  -46,
    53,   -20,  -74,  7,    -57,  -3,   65,   35,   22,   -93,  81,   34,
    -33,  80,   35,   24,   -29,  82,   8,    -66,  -71,  86,   57,   -39,
    -72,  83,   22,   -79,  36,   15,   16,   25,   74,   -96,  -56,  47,
    -13,  89,   24,   94,   40,   64,   -8,   -83,  -8,   17,   -67,  -55,
    21,   84,   99,   -14,  -63,  44,   -58,  -46,  90,   -78,  83,   66,
    -15,  87,   11,   -11,  -45,  -30,  -17,  47,   94,   44,   -82,  -90,
    -87,  -30,  1,    62,   53,   -66,  -95,  87,   -82,  -10,  -89,  26,
    48,   -40,  13,   69,   -1,   -82,  -29,  -17,  105,  66,   66,   56,
    -54,  63,   65,   67,   12,   -58,  -32,  -52,  101,  -31,  -7,   45,
    39,   28,   -12,  -39,  -40,  -37,  -87,  -23,  31,   48,   68,   67,
    -101, -47,  104,  -37,  85,   -69,  30,   -69,  17,   -46,  -18,  11,
    71,   32,   -20,  98,   29,   65,   67,   -72,  23,   82,   -42,  -35,
    -91,  -82,  54,   62,   -54,  88,   -1,   8,    39,   49,   58,   -49,
    -104, -88,  110,  70,   -36,  -29,  79,   24,   -30,  -4,   65,   -41,
    -55,  -30,  15,   62,   33,   -61,  43,   61,   36,   17,   -81,  -1,
    70,   -26,  28,   100,  -68,  -68,  58,   -64,  27,   -82,  80,   14,
    -40,  -29,  75,   -19,  -20,  50,   67,   70,   74,   15,   -5,   39,
    -35,  -53,  -69,  -26,  -84,  15,   -32,  7,    71,   25,   -30,  71,
    0,    8,    43,   36,   -22,  -75,  -71,  -86,  -67,  39,   1,    23,
    72,   -69,  64,   35,   7,    10,   80,   3,    69,   86,   91,   99,
    -16,  8,    33,   -24,  -62,  -71,  -101, -36,  70,   -24,  -93,  59,
    29,   28,   51,   89,   47,   66,   -95,  85,   35,   2,    40,   47,
    70,   59,   8,    -48,  -2,   63,   71,   -84,  64,   -65,  -45,  50,
    -80,  -20,  -55,  89,   -68,  -72,  54,   -65,  -13,  58,   20,   50,
    -2,   23,   94,   6,    61,   26,   30,   -20,  42,   43,   -49,  41,
    -59,  44,   30,   67,   86,   6,    -85,  -24,  73,   -6,   -3,   57,
    54,   -85,  -36,  45,   -29,  -70,  -31,  27,   -6,   73,   -44,  46,
    -18,  -46,  -44,  34,   6,    -18,  36,   -39,  101,  -72,  -3,   14,
    2,    -65,  -38,  91,   0,    -9,   69,   -83,  -72,  -36,  48,   89,
    -57,  -76,  19,   -82,  -20,  61,   63,   -71,  68,   65,   82,   36,
    50,   -64,  -6,   14,   37,   -94,  23,   -38,  8,    -83,  -95,  42,
    2,    -58,  96,   88,   49,   -72,  -34,  -24,  75,   -45,  68,   -53,
    -3,   -51,  60,   74,   71,   0,    -91,  82,   -81,  -71,  76,   -26,
    -78,  1,    -83,  33,   -42,  -26,  64,   -101, -37,  18,   -38,  25,
    -81,  -28,  -72,  48,   15,   -5,   -29,  -57,  2,    1,    -91,  13,
    -92,  58,   27,   -66,  -83,  17,   61,   88,   1,    15,   -19,  -26,
    5,    -33,  3,    76,   -94,  29,   -14,  -79,  96,   -56,  43,   43,
    -27,  -31,  31,   -55,  51,   -60,  75,   -26,  -62,  72,   -11,  -94,
    -69,  -91,  -49,  -77,  -71,  8,    2,    28,   18,   90,   4,    66,
    -102, 83,   -41,  38,   -85,  -7,   81,   -42,  4,    -6,   47,   -74,
    -70,  43,   25,   86,   49,   11,   -45,  66,   29,   34,   86,   30,
    -12,  46,   97,   92,   11,   -69,  -15,  49,   -30,  34,   7,    -101,
    -64,  92,   -23,  -65,  -71,  -52,  74,   77,   74,   55,   30,   -67,
    -30,  -34,  -84,  81,   -28,  66,   56,   79,   86,   80,   83,   -3,
    43,   -55,  -80,  18,   -30,  91,   -65,  48,   -34,  87,   -54,  -70,
    -41,  28,   98,   18,   29,   -82,  26,   -27,  63,   45,   23,   71,
    11,   -70,  66,   98,   -92,  -15,  -20,  -71,  -12,  85,   -47,  -54,
    -11,  88,   64,   -40,  -35,  81,   -89,  32,   77,   23,   60,   -24,
    38,   61,   -71,  93,   -5,   6,    -98,  -90,  -42,  29,   21,   -90,
    9,    -81,  -41,  23,   10,   75,   -6,   -70,  -28,  2,    15,   -13,
    -46,  -3,   42,   12,   -43,  85,   11,   58,   29,   63,   -22,  -63,
    -40,  -97,  16,   81,   37,   47,   -40,  81,   -48,  -32,  -79,  15,
    80,   -74,  -63,  11,   97,   16,   -105, -55,  -4,   -27,  -26,  34,
    75,   31,   50,   -41,  78,   71,   -12,  2,    0,    29,   17,   -91,
    85,   59,   -34,  -85,  -84,  -31,  -74,  17,   92,   73,   83,   -4,
    73,   -3,   8,    -4,   -54,  28,   75,   65,   3,    -39,  19,   48,
    8,    47,   97,   -39,  -82,  -6,   -70,  79,   106,  30,   50,   -52,
    -19,  65,   -74,  -65,  -14,  7,    -29,  55,   37,   84,   65,   -6,
    19,   13,   69,   91,   -29,  -77,  -10,  57,   29,   32,   -72,  -25,
    26,   20,   -28,  63,   -41,  50,   10,   -67,  87,   -29,  10,   27,
    54,   4,    17,   94,   -13,  28,   77,   -14,  90,   -28,  -4,   -85,
    -1,   -38,  46,   41,   0,    10,   -64,  73,   86,   -33,  8,    33,
    -49,  -72,  77,   35,   -29,  -25,  -88,  -53,  -44,  -9,   78,   84,
    48,   -37,  -66,  80,   -29,  14,   -33,  -52,  -50,  -69,  76,   -11,
    -80,  -23,  -52,  95,   81,   45,   78,   34,   67,   42,   -38,  -67,
    -71,  -68,  -37,  97,   -85,  77,   24,   78,   21,   46,   20,   8,
    -69,  -80,  -46,  23,   -12,  25,   31,   20,   22,   -32,  20,   9,
    -6,   -102, 45,   -54,  84,   -62,  -73,  46,   97,   -56,  50,   -60,
    9,    9,    61,   76,   -61,  -87,  -76,  24,   14,   41,   -58,  -31,
    6,    -56,  -83,  49,   9,    -26,  -33,  51,   99,   -67,  86,   -41,
    -66,  2,    53,   80,   0,    -41,  63,   -23,  98,   94,   75,   -55,
    24,   -4,   18,   74,   72,   -86,  7,    95,   2,    82,   -36,  14,
    -68,  7,    91,   -2,   13,   -22,  -44,  18,   53,   -77,  84,   -61,
    -75,  2,    73,   -94,  83,   51,   -60,  -17,  -89,  -32,  -66,  -32,
    21,   42,   -61,  -55,  -71,  -75,  -19,  -69,  -55,  11,   65,   58,
    83,   70,   43,   -20,  -24,  18,   -48,  97,   -4,   -58,  83,   -66,
    -66,  45,   -24,  80,   66,   31,   91,   -10,  -61,  53,   -68,  -16,
    78,   -64,  22,   15,   -65,  -38,  40,   8,    84,   8,    -35,  -57,
    -11,  -39,  20,   -95,  -82,  -72,  3,    -84,  49,   17,   74,   35,
    29,   -27,  -74,  -40,  16,   49,   -22,  -66,  -86,  -33,  -60,  -5,
    84,   92,   -44,  -58,  20,   61,   85,   -53,  4,    81,   -5,   56,
    -42,  18,   -10,  -13,  -4,   0,    97,   -49,  -45,  -66,  -19,  82,
    -84,  43,   -84,  -32,  -66,  12,   -63,  -88,  -56,  92,   -26,  -65,
    72,   -75,  67,   24,   66,   -81,  -3,   -87,  86,   -21,  -8,   -16,
    72,   -34,  78,   -6,   84,   53,   74,   101,  58,   76,   78,   69,
    79,   -14,  -54,  -66,  -68,  -14,  -18,  90,   -75,  97,   -31,  -58,
    76,   98,   -11,  -69,  -62,  47,   -50,  82,   26,   81,   -40,  -4,
    72,   7,    2,    84,   -67,  44,   89,   5,    -68,  -57,  22,   -39,
    14,   -59,  90,   -62,  -73,  -57,  0,    54,   13,   74,   -25,  -6,
    53,   -28,  -90,  -24,  -43,  -35,  56,   92,   25,   -84,  57,   -19,
    -48,  57,   60,   13,   -72,  16,   -35,  67,   -15,  -23,  50,   -59,
    -57,  26,   85,   -36,  -83,  89,   -75,  -90,  74,   -7,   -27,  3,
    -43,  -62,  -67,  -23,  27,   -12,  -31,  -18,  62,   -5,   23,   -3,
    105,  -33,  19,   1,    60,   -4,   -32,  -71,  -73,  -1,   29,   1,
    -17,  -69,  24,   56,   -90,  -46,  83,   26,   -57,  12,   -18,  -56,
    -60,  78,   57,   49,   89,   53,   99,   93,   -1,   -26,  -36,  -24,
    -60,  1,    -11,  -34,  -99,  -70,  78,   77,   32,   -81,  37,   96,
    84,   -44,  47,   -56,  -32,  19,   21,   -21,  51,   78,   -89,  67,
    -7,   95,   70,   -2,   34,   17,   -26,  3,    27,   92,   74,   -8,
    -38,  -53,  -54,  17,   -8,   -70,  -39,  33,   -30,  0,    83,   -62,
    22,   98,   -91,  10,   88,   8,    48,   -28,  -54,  -28,  15,   -43,
    -23,  36,   -62,  -55,  15,   64,   -79,  38,   -29,  25,   -53,  62,
    -61,  37,   -32,  -84,  33,   97,   -22,  -17,  11,   98,   17,   19,
    96,   53,   -80,  56,   40,   6,    -57,  -17,  -96,  40,   51,   -40,
    16,   71,   -70,  -91,  40,   -54,  2,    97,   -95,  -7,   73,   -91,
    -48,  80,   -94,  64,   50,   91,   -19,  80,   -14,  38,   73,   -67,
    -21,  -75,  1,    -103, -7,   -17,  65,   -57,  1,    -61,  -29,  -59,
    -11,  49,   27,   -43,  0,    71,   85,   -31,  3,    8,    -57,  -41,
    5,    -2,   -65,  -58,  -94,  -22,  45,   -35,  -58,  -34,  -63,  -97,
    90,   -82,  -17,  -13,  78,   -60,  -22,  0,    -43,  65,   -1,   34,
    8,    -29,  -43,  -12,  -15,  80,   -14,  94,   -52,  -16,  42,   44,
    6,    16,   -60,  -19,  8,    11,   -65,  58,   18,   -28,  82,   80,
    40,   -59,  -20,  31,   25,   31,   -4,   100,  -78,  66,   25,   -83,
    54,   -41,  66,   0,    1,    0,    93,   -51,  89,   13,   -8,   -100,
    47,   -47,  80,   -61,  57,   8,    21,   102,  30,   73,   54,   -73,
    5,    -49,  87,   90,   29,   -21,  44,   59,   -64,  4,    34,   -41,
    13,   -2,   -45,  -61,  -59,  70,   96,   92,   34,   2,    -87,  52,
    18,   -48,  -89,  33,   74,   44,   11,   21,   29,   -65,  47,   -52,
    -3,   -22,  -13,  50,   -71,  37,   -81,  -59,  55,   21,   83,   -48,
    62,   71,   60,   1,    -25,  36,   106,  42,   58,   -48,  24,   17,
    68,   10,   -27,  -93,  -30,  -55,  85,   57,   -36,  57,   72,   -13,
    -14,  21,   -59,  18,   99,   50,   -9,   42,   44,   71,   1,    -19,
    32,   -77,  -62,  -73,  -25,  91,   50,   -74,  -36,  -90,  -66,  -26,
    68,   50,   -84,  -41,  69,   -62,  70,   -79,  -46,  43,   -47,  64,
    38,   79,   -31,  72,   37,   95,   5,    -67,  3,    -47,  -77,  -49,
    5,    -73,  16,   32,   93,   61,   27,   -73,  -58,  -78,  -87,  -25,
    52,   -23,  72,   -80,  27,   -71,  -16,  33,   -44,  21,   -20,  -72,
    7,    6,    -9,   21,   -23,  52,   -48,  -59,  24,   -12,  -7,   94,
    66,   -11,  6,    58,   -79,  -86,  53,   17,   38,   -34,  -59,  41,
    41,   62,   70,   -102, 100,  -14,  90,   67,   -77,  -21,  43,   7,
    -2,   -85,  -41,  -46,  -10,  -1,   -8,   6,    64,   -37,  54,   51,
    -39,  5,    -4,   44,   54,   44,   -66,  5,    37,   -83,  -61,  -8,
    48,   76,   62,   76,   25,   -5,   -25,  -76,  86,   41,   85,   -70,
    71,   -72,  58,   -43,  -44,  12,   -82,  -30,  -15,  33,   -3,   7,
    -54,  80,   -28,  91,   -68,  -67,  17,   65,   31,   -41,  -27,  2,
    -61,  47,   87,   -10,  14,   -13,  42,   67,   -65,  -23,  4,    80,
    -80,  9,    -5,   4,    -40,  -29,  -56,  65,   -81,  -39,  -29,  48,
    -10,  81,   22,   92,   -11,  25,   -15,  -68,  50,   -29,  -29,  70,
    -7,   35,   -66,  -26,  -74,  3,    -73,  92,   88,   19,   -5,   37,
    78,   -41,  -62,  77,   -20,  40,   9,    -44,  -27,  -45,  17,   65,
    -20,  32,   -33,  -24,  -37,  -28,  -82,  -9,   -20,  -77,  46,   -48,
    -83,  -38,  29,   13,   39,   87,   28,   2,    -60,  59,   -6,   8,
    -41,  -23,  69,   -38,  -15,  88,   -9,   86,   25,   -52,  -36,  36,
    -5,   -87,  -95,  -11,  -71,  64,   -74,  -55,  56,   -32,  14,   -84,
    93,   -5,   -49,  -8,   29,   71,   -47,  42,   -56,  80,   -44,  50,
    4,    21,   -61,  -62,  59,   -41,  37,   96,   1,    82,   -68,  52,
    84,   -59,  -67,  -19,  -58,  -69,  54,   68,   -25,  -58,  -81,  -40,
    -66,  -22,  -77,  7,    -41,  43,   44,   99,   92,   54,   -14,  3,
    -36,  44,   12,   65,   -12,  82,   -27,  -11,  -28,  -74,  -16,  -9,
    47,   -55,  2,    55,   -96,  -34,  12,   4,    -4,   36,   -66,  -70,
    -29,  20,   45,   -7,   11,   61,   -55,  43,   16,   13,   -75,  51,
    93,   -38,  71,   -23,  -91,  -36,  -82,  12,   -50,  85,   56,   -74,
    90,   -63,  -86,  -5,   -63,  -50,  24,   -40,  -66,  -31,  -69,  -70,
    13,   62,   45,   94,   79,   34,   -12,  -77,  92,   46,   -48,  -30,
    13,   63,   60,   63,   -95,  -65,  50,   24,   -92,  -3,   -68,  -77,
    86,   37,   -14,  31,   65,   89,   90,   21,   21,   21,   79,   -55,
    -78,  -48,  -36,  -87,  -94,  -84,  3,    5,    59,   -93,  -11,  58,
    -36,  -58,  67,   -90,  16,   -68,  -54,  -37,  50,   23,   70,   -81,
    -69,  -21,  -35,  -8,   27,   80,   74,   60,   -30,  -37,  90,   -93,
    7,    87,   -88,  59,   60,   -54,  33,   50,   -87,  -74,  -101, 17,
    -71,  13,   -54,  75,   32,   -6,   12,   33,   -59,  53,   14,   35,
    93,   -53,  -37,  -96,  -23,  94,   48,   -85,  30,   -26,  -109, 98,
    40,   18,   26,   -3,   -28,  -43,  -19,  -22,  29,   -53,  -109, -79,
    -21,  92,   -49,  -18,  -35,  -69,  62,   25,   -23,  -15,  45,   40,
    -81,  67,   -42,  69,   70,   -10,  -79,  62,   34,   63,   8,    53,
    53,   -22,  66,   -57,  -40,  63,   -1,   -56,  -76,  -1,   -40,  7,
    29,   -73,  96,   6,    -76,  95,   40,   -5,   -96,  13,   -69,  -91,
    99,   -47,  9,    -17,  -47,  -17,  -53,  -39,  11,   -53,  39,   34,
    7,    -38,  -28,  80,   61,   63,   98,   41,   62,   -73,  -64,  -8,
    41,   67,   71,   101,  -73,  82,   47,   74,   -75,  -38,  -25,  -29,
    51,   -21,  -35,  -3,   69,   30,   9,    81,   94,   52,   54,   -35,
    16,   32,   85,   -24,  -4,   -75,  -44,  92,   26,   22,   35,   -34,
    -37,  4,    -40,  75,   -8,   36,   73,   -28,  -58,  56,   40,   31,
    47,   6,    -33,  76,   76,   -52,  45,   -2,   63,   72,   -53,  -17,
    53,   89,   -11,  -58,  46,   41,   -23,  -54,  102,  28,   43,   12,
    21,   49,   -74,  -57,  25,   86,   47,   -3,   52,   -6,   0,    -10,
    110,  -26,  -24,  73,   65,   4,    32,   -39,  96,   60,   74,   -93,
    16,   80,   77,   0,    22,   86,   -70,  13,   -34,  17,   -99,  15,
    22,   -14,  -69,  -80,  75,   -37,  -22,  56,   59,   -68,  71,   -69,
    -11,  45,   -22,  -58,  -82,  -6,   10,   59,   78,   2,    -40,  52,
    -35,  -34,  97,   -12,  78,   -97,  50,   21,   74,   -15,  -17,  -91,
    56,   -80,  59,   27,   41,   -69,  104,  37,   -77,  10,   75,   -5,
    -79,  82,   -68,  -31,  -57,  50,   -9,   -43,  -91,  -78,  -26,  -27,
    -66,  27,   -29,  17,   -4,   -34,  87,   -79,  89,   -37,  -60,  6,
    -66,  -71,  -64,  23,   30,   -36,  68,   33,   -84,  55,   -64,  39,
    -42,  62,   -58,  -76,  -66,  -79,  44,   -17,  20,   -28,  62,   8,
    51,   16,   -15,  67,   -42,  -92,  -39,  54,   -43,  -22,  -43,  -9,
    -55,  -12,  -30,  37,   53,   -38,  109,  -33,  24,   -30,  -17,  81,
    -77,  -49,  -91,  -25,  -23,  -32,  26,   30,   25,   71,   35,   -16,
    76,   -21,  40,   -75,  97,   22,   90,   55,   94,   15,   -8,   82,
    -38,  -53,  54,   100,  45,   29,   -51,  -21,  13,   -62,  -18,  -38,
    -82,  32,   93,   49,   87,   94,   107,  -86,  -75,  54,   87,   -54,
    6,    -100, -23,  49,   1,    101,  87,   46,   26,   23,   0,    -73,
    6,    40,   -57,  110,  -10,  98,   18,   79,   43,   -18,  78,   104,
    97,   69,   -25,  65,   93,   -12,  108,  74,   -61,  81,   -79,  -50,
    -59,  38,   -92,  -9,   90,   -9,   78,   80,   -65,  -1,   1,    -27,
    -81,  -31,  -6,   -68,  22,   -12,  21,   -99,  -55,  65,   -10,  58,
    98,   21,   -76,  66,   -69,  -6,   25,   -22,  -46,  -16,  -20,  -55,
    -35,  73,   58,   86,   7,    73,   83,   -53,  -35,  -53,  -10,  -28,
    60,   -85,  -75,  -27,  -34,  -45,  54,   -14,  66,   -52,  0,    -44,
    104,  50,   -29,  -57,  48,   -68,  -46,  -20,  40,   84,   32,   -50,
    -4,   34,   23,   -62,  6,    -32,  11,   30,   78,   42,   72,   68,
    48,   -86,  95,   -89,  12,   20,   52,   48,   73,   28,   -60,  -66,
    22,   -39,  -17,  -15,  -35,  2,    -72,  40,   62,   -6,   68,   -22,
    59,   82,   40,   5,    43,   79,   -42,  14,   33,   -89,  -44,  -84,
    74,   24,   98,   -33,  71,   36,   -68,  -24,  18,   72,   -18,  -17,
    15,   -88,  20,   71,   -12,  8,    -33,  45,   -63,  74,   -69,  14,
    17,   49,   30,   42,   -11,  91,   -44,  8,    -44,  -23,  46,   68,
    -63,  79,   67,   12,   53,   -15,  10,   3,    4,    -110, 27,   70,
    80,   -51,  -59,  -88,  -4,   78,   66,   -34,  38,   -96,  29,   -2,
    99,   88,   -74,  -30,  -71,  -31,  44,   24,   43,   76,   61,   -40,
    109,  -49,  62,   90,   34,   35,   111,  -76,  31,   65,   -37,  -38,
    67,   -92,  -59,  66,   29,   58,   43,   2,    58,   41,   49,   82,
    -39,  36,   84,   36,   -25,  79,   21,   -52,  15,   48,   85,   8,
    -69,  -27,  47,   32,   78,   25,   -10,  28,   -5,   -38,  4,    -60,
    -24,  67,   -63,  -87,  11,   77,   -2,   -38,  -69,  -16,  -25,  -37,
    -42,  67,   -17,  -58,  -54,  -13,  84,   40,   -81,  -63,  -21,  -18,
    72,   -57,  -20,  60,   15,   64,   109,  -91,  80,   13,   -75,  -26,
    62,   -6,   -15,  8,    12,   69,   26,   41,   95,   -94,  -39,  40,
    81,   8,    38,   43,   48,   -64,  53,   -27,  -45,  -29,  -66,  -46,
    -12,  -88,  81,   -38,  54,   -15,  105,  24,   -52,  66,   -67,  -58,
    -36,  27,   20,   14,   -60,  51,   -70,  56,   -38,  -21,  -12,  45,
    62,   -39,  -19,  -43,  -57,  -71,  -35,  -58,  30,   48,   6,    -14,
    -72,  -14,  -18,  -82,  56,   3,    -16,  89,   -45,  45,   92,   -98,
    6,    49,   -14,  92,   87,   88,   -1,   27,   35,   26,   -24,  18,
    -77,  22,   -21,  -41,  22,   78,   26,   87,   45,   97,   -51,  71,
    89,   23,   -44,  31,   86,   -30,  62,   7,    55,   59,   16,   66,
    105,  -44,  -61,  -18,  -27,  -92,  -16,  68,   78,   94,   101,  32,
    -5,   -68,  7,    -42,  44,   -66,  15,   62,   13,   -65,  -31,  -91,
    37,   -59,  -70,  -7,   -4,   -68,  95,   -20,  58,   -28,  -46,  77,
    -4,   -46,  8,    -16,  -3,   -30,  -61,  16,   -87,  73,   -7,   -69,
    -9,   9,    83,   45,   81,   -40,  16,   -75,  -75,  76,   -68,  -38,
    -28,  -56,  85,   18,   67,   -9,   -72,  -44,  -66,  -62,  33,   -30,
    56,   -53,  -9,   40,   -34,  -79,  -28,  76,   92,   -82,  -91,  26,
    6,    -52,  57,   -6,   89,   101,  102,  78,   75,   -20,  -36,  -13,
    -31,  -86,  -33,  40,   76,   -88,  80,   -83,  79,   83,   63,   -47,
    -10,  62,   -46,  86,   -35,  69,   97,   28,   52,   -22,  -13,  -48,
    44,   -25,  66,   46,   68,   41,   -40,  21,   -56,  -5,   -72,  49,
    -48,  -67,  77,   -96,  -2,   -37,  48,   75,   45,   -48,  -67,  -48,
    76,   57,   -15,  87,   -83,  -13,  -8,   61,   -27,  -59,  -4,   20,
    54,   -34,  23,   -69,  20,   28,   11,   17,   78,   -54,  -63,  68,
    103,  -36,  72,   -36,  68,   -15,  -75,  83,   43,   71,   65,   -55,
    29,   -80,  45,   -82,  17,   -11,  -28,  2,    -64,  54,   -17,  32,
    27,   -54,  69,   62,   0,    -11,  -27,  -5,   14,   44,   -58,  4,
    -69,  -75,  30,   48,   -85,  -79,  -69,  82,   -87,  50,   67,   13,
    66,   28,   64,   -48,  3,    -9,   44,   20,   36,   21,   69,   60,
    80,   39,   38,   -84,  -71,  -93,  -71,  -46,  56,   80,   -72,  -37,
    -55,  42,   -70,  54,   -14,  10,   20,   63,   -72,  -93,  34,   28,
    -68,  -64,  73,   -12,  45,   55,   93,   -65,  -2,   -5,   -15,  42,
    -76,  21,   8,    -92,  59,   9,    -31,  52,   33,   11,   5,    -17,
    10,   -36,  -34,  69,   27,   -78,  61,   35,   12,   4,    -5,   -70,
    26,   -37,  -65,  5,    -28,  25,   -28,  33,   -73,  63,   43,   0,
    99,   56,   73,   39,   -3,   11,   -35,  -15,  -62,  -2,   29,   34,
    -72,  12,   104,  -22,  100,  54,   15,   -79,  -65,  50,   -80,  83,
    42,   -29,  -77,  -33,  -67,  -38,  14,   27,   103,  -5,   39,   83,
    -59,  -46,  16,   65,   -71,  -88,  85,   -37,  57,   -21,  51,   -52,
    99,   -29,  19,   65,   -18,  30,   42,   -16,  84,   -12,  -33,  -12,
    84,   -14,  13,   -5,   -87,  -10,  27,   -90,  -66,  52,   -21,  81,
    -68,  74,   68,   -8,   -37,  -29,  71,   68,   -43,  47,   -16,  -32,
    106,  -50,  45,   -76,  -45,  -79,  -69,  69,   62,   -31,  -66,  -51,
    41,   86,   68,   -85,  -23,  -48,  53,   53,   -61,  10,   -43,  -25,
    -7,   83,   31,   92,   -13,  14,   40,   3,    -51,  27,   58,   -56,
    -68,  22,   83,   78,   66,   96,   -23,  24,   88,   93,   1,    0,
    -37,  21,   4,    -34,  -20,  21,   -33,  41,   -77,  -28,  -101, 33,
    -74,  -16,  107,  74,   -33,  3,    -22,  46,   -45,  31,   -53,  30,
    38,   -38,  69,   1,    58,   8,    -40,  92,   101,  35,   57,   -94,
    -63,  60,   -71,  12,   81,   90,   76,   -59,  -24,  -3,   3,    -27,
    17,   66,   -49,  -76,  -105, -39,  79,   -65,  -54,  34,   55,   15,
    -3,   -29,  18,   -6,   -17,  65,   22,   29,   -65,  48,   18,   -84,
    -14,  -57,  70,   -27,  60,   -71,  -48,  97,   66,   94,   80,   -18,
    33,   -34,  79,   -29,  75,   69,   68,   -6,   -52,  -86,  -85,  69,
    -78,  28,   -19,  -21,  -27,  14,   91,   -51,  17,   -34,  -48,  -59,
    65,   -4,   76,   -69,  71,   11,   65,   96,   -102, 29,   -64,  -78,
    -40,  0,    -67,  54,   11,   -87,  57,   81,   30,   -89,  101,  -89,
    82,   96,   -27,  77,   -14,  -45,  72,   80,   69,   -77,  22,   9,
    72,   62,   -109, 72,   -21,  95,   47,   -55,  73,   85,   -24,  -62,
    75,   -9,   48,   27,   -20,  -9,   47,   -63,  52,   22,   66,   -65,
    8,    -69,  -36,  -54,  -15,  83,   105,  7,    -93,  -65,  29,   -19,
    -15,  98,   -28,  64,   2,    -73,  27,   -53,  -54,  -13,  70,   -5,
    -75,  -67,  33,   56,   68,   -30,  57,   82,   -42,  12,   65,   56,
    104,  9,    -41,  -53,  19,   -49,  -20,  43,   37,   -67,  -32,  -82,
    -63,  -54,  52,   -18,  -20,  -59,  78,   79,   48,   79,   -60,  -32,
    -70,  -28,  -96,  36,   -42,  11,   -31,  -12,  -107, 48,   58,   28,
    -4,   -65,  40,   69,   -82,  10,   76,   63,   32,   70,   -14,  -73,
    29,   2,    -84,  -78,  10,   78,   -41,  -33,  19,   -41,  74,   -55,
    -57,  -67,  -27,  9,    -78,  -56,  -77,  -86,  -93,  -74,  44,   -12,
    -25,  38,   -47,  15,   -29,  25,   32,   -40,  -105, 19,   50,   -42,
    -77,  -8,   32,   49,   55,   67,   -29,  44,   -75,  79,   -82,  -71,
    46,   -4,   -85,  -56,  4,    47,   19,   34,   57,   4,    -39,  -2,
    -80,  -2,   -17,  22,   28,   73,   103,  -86,  -3,   35,   81,   -77,
    -67,  -8,   -8,   11,   -43,  81,   -19,  -10,  13,   85,   -100, 4,
    -9,   41,   20,   78,   -8,   13,   -76,  90,   24,   -60,  70,   74,
    22,   -19,  61,   83,   -75,  36,   -48,  -8,   48,   43,   -86,  17,
    61,   7,    -104, -18,  -27,  3,    -37,  75,   -74,  -10,  -79,  56,
    106,  -7,   -57,  -37,  96,   67,   -13,  -44,  65,   4,    20,   -92,
    82,   2,    -35,  -56,  34,   33,   -13,  -50,  2,    -25,  -33,  -10,
    -41,  46,   7,    -47,  71,   -104, 27,   56,   -2,   -7,   -32,  18,
    -12,  -89,  -86,  22,   26,   -80,  -26,  54,   -35,  44,   90,   -42,
    16,   -41,  -82,  -20,  73,   66,   -48,  40,   -108, -95,  -79,  12,
    -31,  -52,  -107, -3,   -11,  -68,  54,   40,   7,    39,   80,   34,
    -73,  -87,  -105, 75,   -99,  -18,  10,   98,   -74,  19,   -9,   51,
    43,   18,   -10,  -61,  8,    -33,  24,   -52,  57,   20,   -92,  -92,
    -65,  34,   66,   56,   -38,  29,   -29,  35,   56,   49,   11,   -34,
    30,   -16,  -13,  0,    14,   -45,  -1,   -19,  -26,  -54,  -3,   -67,
    -67,  100,  -60,  -51,  54,   -23,  7,    -66,  -92,  4,    -46,  -50,
    -71,  28,   -74,  -65,  81,   -55,  3,    55,   -35,  18,   28,   -22,
    -78,  -76,  52,   -37,  25,   76,   79,   2,    39,   -33,  -17,  83,
    70,   10,   -96,  -71,  28,   46,   100,  46,   -61,  -61,  27,   37,
    -76,  -2,   -40,  -73,  87,   14,   -15,  78,   -88,  -62,  -35,  40,
    4,    -16,  36,   -78,  -24,  -8,   64,   101,  54,   -42,  -68,  -90,
    -5,   3,    -14,  -48,  63,   93,   11,   56,   -3,   7,    -93,  -18,
    11,   81,   -88,  -60,  -85,  -40,  30,   19,   -107, -88,  -23,  -9,
    0,    -13,  -99,  22,   94,   -23,  -75,  -35,  -32,  45,   -30,  79,
    41,   -31,  -78,  62,   28,   -85,  -21,  48,   33,   -58,  -64,  26,
    -13,  -63,  44,   -89,  -22,  46,   -81,  39,   -45,  28,   -14,  19,
    58,   -6,   30,   -51,  -19,  -57,  48,   -21,  39,   13,   -10,  -19,
    40,   -5,   51,   31,   41,   -77,  45,   36,   51,   81,   93,   7,
    44,   54,   68,   53,   82,   62,   -9,   52,   -28,  -14,  -39,  35,
    100,  16,   43,   -70,  74,   -48,  100,  -59,  -77,  76,   21,   -49,
    43,   -81,  -52,  -19,  34,   21,   79,   54,   -15,  -62,  48,   26,
    -1,   49,   -95,  -29,  -69,  1,    -45,  -21,  22,   46,   -57,  88,
    64,   48,   -43,  -44,  56,   19,   -27,  44,   -77,  94,   99,   -16,
    62,   90,   -59,  33,   -80,  10,   89,   -28,  -88,  -18,  -23,  86,
    99,   18,   14,   -42,  29,   -55,  18,   11,   -27,  64,   -71,  5,
    -40,  -6,   44,   4,    -22,  -32,  -22,  35,   -68,  -81,  26,   52,
    -30,  -5,   -64,  -49,  87,   -18,  24,   40,   -30,  -52,  -38,  46,
    11,   53,   -96,  67,   -17,  24,   100,  -35,  -19,  -49,  40,   -55,
    59,   -45,  76,   73,   4,    45,   107,  27,   -77,  -15,  59,   -49,
    109,  -46,  -107, 95,   -96,  66,   -9,   73,   -98,  11,   34,   -35,
    -41,  -85,  -33,  -37,  24,   -70,  94,   12,   67,   -18,  -14,  -17,
    103,  -14,  -44,  25,   -89,  68,   -8,   38,   -44,  59,   59,   16,
    92,   59,   -21,  70,   -24,  -23,  66,   -67,  -65,  27,   -52,  75,
    76,   -23,  -43,  69,   -28,  2,    54,   -22,  66,   58,   16,   -4,
    88,   79,   -61,  93,   -92,  -42,  18,   -61,  -68,  -65,  2,    -92,
    -37,  62,   34,   39,   40,   -9,   -72,  87,   24,   -84,  44,   -103,
    -78,  56,   -8,   -72,  10,   -25,  103,  72,   -40,  -57,  -67,  28,
    -79,  95,   77,   -6,   -62,  59,   -8,   66,   66,   59,   -17,  -20,
    -54,  -16,  69,   98,   -12,  26,   39,   -62,  -24,  23,   -5,   73,
    -5,   -50,  20,   62,   9,    28,   17,   77,   -55,  -10,  82,   -59,
    -11,  -23,  -61,  -47,  0,    53,   64,   80,   -70,  75,   -79,  34,
    -31,  -78,  29,   -76,  -52,  56,   -16,  -15,  -94,  75,   -89,  -23,
    -37,  -79,  66,   -32,  86,   -99,  -73,  0,    26,   47,   -81,  43,
    -29,  -47,  27,   -78,  -13,  23,   12,   48,   -35,  -80,  -87,  -99,
    56,   -50,  29,   29,   -59,  -95,  -81,  73,   -61,  86,   -52,  59,
    99,   25,   73,   62,   6,    -9,   75,   -68,  -29,  94,   -47,  72,
    29,   -66,  -93,  6,    -89,  -4,   25,   -84,  -52,  65,   47,   21,
    -69,  -45,  -23,  7,    -18,  -80,  -69,  -54,  24,   99,   -47,  2,
    -49,  -20,  -53,  -77,  11,   86,   -60,  -89,  76,   -64,  -45,  16,
    97,   67,   -36,  73,   -91,  -16,  -14,  68,   -31,  51,   1,    88,
    91,   17,   19,   -29,  -96,  -45,  103,  9,    -41,  -54,  34,   5,
    30,   -77,  34,   -55,  23,   72,   -66,  77,   -105, -10,  90,   76,
    61,   -58,  62,   45,   65,   31,   -57,  -35,  82,   34,   -45,  -6,
    -23,  -55,  5,    41,   -37,  -60,  -6,   97,   -52,  -65,  -34,  80,
    50,   -44,  10,   -37,  -36,  -56,  -3,   -64,  69,   -42,  -12,  16,
    -73,  25,   82,   -76,  -60,  70,   41,   1,    -106, -33,  62,   -30,
    99,   -57,  72,   57,   -26,  74,   72,   22,   -83,  14,   -7,   -10,
    86,   -6,   -105, -35,  71,   102,  25,   -88,  29,   -71,  85,   13,
    29,   -21,  -22,  -78,  -38,  -42,  42,   -66,  20,   -65,  52,   -16,
    102,  89,   -66,  -40,  -25,  -40,  81,   -80,  -87,  37,   -71,  -36,
    77,   -23,  26,   -6,   72,   79,   -14,  69,   70,   -31,  103,  3,
    34,   29,   83,   36,   -52,  90,   16,   69,   -12,  -56,  -77,  14,
    94,   -77,  -25,  70,   89,   -79,  90,   65,   4,    14,   -7,   -57,
    80,   -38,  19,   33,   85,   -88,  20,   51,   59,   23,   89,   18,
    61,   58,   0,    76,   72,   39,   96,   69,   -63,  -67,  67,   51,
    70,   -54,  -97,  11,   -79,  20,   -13,  30,   5,    -18,  27,   -14,
    91,   54,   -103, 68,   71,   -17,  60,   -42,  -80,  22,   83,   88,
    -75,  72,   -69,  -37,  -69,  -35,  14,   22,   -68,  -24,  -38,  -88,
    -67,  -83,  5,    24,   -3,   -49,  103,  -65,  -105, 73,   -21,  59,
    45,   -13,  -93,  -56,  -51,  -9,   16,   -17,  -16,  -83,  84,   24,
    74,   27,   84,   -10,  97,   -3,   -65,  83,   76,   -29,  -13,  -36,
    -12,  61,   -73,  -12,  36,   -67,  -40,  -66,  71,   16,   -69,  -31,
    14,   34,   82,   -6,   32,   -46,  -58,  37,   -72,  -18,  87,   -90,
    83,   -24,  -25,  -62,  -26,  27,   -48,  -83,  -7,   76,   -38,  76,
    -44,  -15,  87,   57,   65,   70,   -18,  -41,  -23,  29,   9,    -64,
    -13,  32,   -75,  -6,   -43,  18,   59,   77,   -33,  -64,  88,   -40,
    -55,  33,   -33,  86,   51,   25,   86,   48,   -95,  -2,   -75,  2,
    -15,  -8,   -96,  -20,  69,   6,    58,   -8,   -39,  -73,  55,   77,
    -51,  -79,  -27,  0,    81,   -1,   -41,  59,   -8,   46,   -100, -58,
    79,   0,    11,   -12,  68,   22,   33,   -28,  -90,  -97,  -88,  14,
    -73,  98,   -36,  53,   -22,  -57,  94,   23,   61,   -33,  -59,  -43,
    -23,  -39,  -94,  -26,  25,   52,   102,  94,   -60,  36,   53,   -39,
    -1,   8,    20,   14,   -85,  -18,  0,    -3,   -52,  -36,  18,   -57,
    -32,  -34,  30,   83,   -11,  54,   47,   -74,  77,   30,   48,   52,
    108,  4,    -88,  17,   -94,  48,   -75,  23,   -28,  50,   -46,  89,
    -6,   15,   45,   8,    -25,  51,   23,   0,    -19,  -20,  40,   44,
    -62,  35,   -32,  -68,  3,    71,   54,   91,   93,   -59,  73,   -45,
    -2,   79,   52,   88,   30,   -37,  -49,  -12,  76,   11,   -6,   -33,
    24,   -34,  -29,  -89,  -64,  -72,  -47,  90,   78,   41,   -50,  66,
    71,   70,   92,   42,   22,   34,   -62,  29,   -29,  -62,  -5,   44,
    -70,  -78,  -30,  91,   37,   9,    -58,  15,   41,   22,   -30,  78,
    2,    29,   -52,  -51,  -69,  86,   -77,  -61,  16,   -16,  -85,  -14,
    105,  42,   -72,  57,   4,    42,   5,    11,   -61,  -18,  85,   30,
    30,   -47,  -22,  -56,  -20,  34,   -77,  -9,   -13,  -73,  -18,  -58,
    11,   24,   -31,  96,   16,   53,   88,   14,   -50,  47,   85,   -47,
    79,   -33,  41,   80,   -88,  15,   73,   43,   -7,   93,   -27,  38,
    -42,  -43,  -40,  81,   16,   56,   44,   -37,  -93,  -38,  -36,  -71,
    71,   55,   72,   -27,  -39,  -65,  -64,  59,   -97,  75,   33,   -48,
    63,   53,   -77,  91,   -42,  -16,  -60,  0,    59,   22,   95,   -46,
    33,   53,   88,   -12,  15,   80,   61,   20,   -49,  -52,  61,   79,
    -54,  -46,  -82,  -51,  35,   24,   69,   69,   -31,  -88,  -13,  41,
    -16,  80,   46,   -43,  25,   89,   62,   1,    28,   41,   4,    73,
    99,   -79,  26,   8,    83,   -78,  11,   18,   71,   25,   4,    -61,
    -29,  23,   -45,  -51,  -57,  -22,  -45,  -2,   -69,  -91,  -45,  -19,
    93,   69,   -95,  -37,  -22,  12,   -51,  -15,  -75,  81,   34,   -29,
    48,   -63,  -38,  14,   43,   -14,  17,   32,   12,   -52,  56,   -52,
    65,   80,   34,   60,   -24,  65,   -62,  -47,  38,   -19,  -68,  30,
    -69,  -18,  -52,  71,   -53,  45,   5,    -87,  -83,  -87,  35,   -14,
    19,   87,   31,   52,   18,   -90,  19,   -68,  19,   75,   -96,  -15,
    84,   99,   -89,  81,   -4,   -43,  39,   96,   -51,  -70,  30,   -61,
    -69,  -41,  -87,  -85,  -62,  37,   33,   48,   -67,  18,   -1,   -27,
    -58,  41,   -52,  -3,   80,   49,   66,   83,   19,   85,   -28,  97,
    -35,  1,    47,   64,   -57,  19,   74,   -64,  38,   84,   -12,  20,
    54,   1,    7,    82,   -97,  -56,  -28,  95,   11,   13,   76,   89,
    -61,  28,   -55,  78,   9,    -80,  -42,  -49,  66,   -36,  21,   75,
    -57,  -51,  15,   16,   -48,  89,   53,   -15,  -12,  0,    82,   54,
    98,   -56,  -75,  -98,  30,   -54,  38,   -35,  -58,  7,    -24,  50,
    71,   -10,  40,   9,    -18,  -1,   17,   0,    -93,  -28,  -89,  68,
    13,   -82,  40,   -40,  -88,  -68,  90,   -19,  64,   -41,  82,   5,
    61,   -70,  -88,  -101, 23,   -34,  -27,  -83,  -40,  -34,  17,   -77,
    -52,  70,   -95,  -13,  -76,  42,   66,   -20,  58,   73,   41,   -34,
    62,   88,   19,   -20,  -13,  37,   45,   25,   -41,  -16,  74,   -2,
    -16,  -13,  -87,  78,   -26,  -49,  -10,  48,   -70,  -77,  17,   51,
    -43,  -80,  -67,  70,   -80,  -88,  75,   16,   -80,  -5,   -7,   52,
    57,   62,   50,   -70,  -66,  2,    -61,  -5,   -12,  -12,  17,   1,
    -64,  3,    36,   91,   96,   34,   -46,  -27,  40,   89,   -31,  -48,
    59,   87,   80,   -13,  -60,  -46,  74,   -80,  17,   39,   48,   -75,
    -78,  67,   35,   -30,  -56,  53,   105,  13,   12,   23,   -34,  7,
    -42,  37,   -17,  -56,  -50,  30,   -67,  26,   -30,  -55,  -68,  -24,
    -7,   94,   -76,  14,   13,   -69,  103,  -49,  -19,  30,   1,    -11,
    -8,   87,   0,    6,    75,   89,   103,  -83,  -3,   26,   -39,  76,
    66,   -65,  -46,  -18,  69,   68,   19,   -42,  72,   27,   65,   -22,
    37,   -10,  -53,  57,   -82,  -22,  12,   83,   -11,  64,   -70,  -47,
    -7,   44,   54,   94,   30,   0,    -5,   49,   -11,  34,   93,   47,
    -33,  63,   -77,  51,   -38,  2,    -60,  33,   -41,  22,   20,   81,
    -57,  -44,  -44,  -35,  -49,  -5,   59,   23,   -26,  -47,  -38,  57,
    84,   104,  -32,  54,   13,   -90,  47,   -33,  -74,  3,    25,   35,
    2,    60,   7,    -42,  29,   66,   -3,   -67,  -28,  19,   38,   -74,
    93,   10,   49,   23,   80,   -14,  63,   -53,  -61,  -17,  36,   83,
    55,   -17,  47,   51,   7,    -17,  103,  79,   42,   10,   -12,  15,
    -44,  46,   4,    -91,  40,   -58,  99,   -78,  -44,  -64,  -84,  19,
    -48,  3,    65,   73,   -53,  -88,  -9,   45,   -49,  1,    63,   82,
    65,   81,   77,   -54,  -46,  54,   -22,  6,    78,   -18,  -59,  -72,
    38,   27,   33,   32,   39,   -58,  66,   37,   -72,  28,   -84,  81,
    30,   70,   -7,   18,   -67,  -39,  10,   -33,  86,   16,   -24,  -67,
    18,   -25,  79,   -17,  10,   39,   -17,  63,   70,   -65,  53,   -57,
    -5,   45,   -20,  -34,  -36,  -4,   30,   -54,  23,   10,   -44,  -43,
    78,   26,   55,   71,   -58,  31,   98,   9,    -87,  -88,  34,   11,
    -58,  69,   37,   0,    61,   54,   25,   -56,  -65,  28,   28,   71,
    -26,  -42,  70,   5,    -21,  -39,  49,   65,   -33,  13,   -24,  2,
    68,   -26,  -57,  -12,  -97,  -67,  9,    32,   -45,  79,   54,   71,
    90,   50,   -62,  21,   -84,  -77,  30,   -37,  -16,  -57,  58,   50,
    74,   105,  -48,  -57,  55,   40,   7,    68,   20,   -20,  33,   -40,
    -62,  77,   89,   71,   2,    54,   61,   42,   -9,   -33,  3,    -33,
    92,   -20,  69,   -14,  40,   73,   69,   101,  87,   -38,  -82,  60,
    75,   -85,  19,   -45,  73,   -35,  1,    -19,  21,   18,   -4,   -75,
    62,   11,   90,   46,   74,   0,    -61,  12,   -25,  -76,  -11,  28,
    16,   66,   17,   -37,  70,   -15,  -71,  17,   -70,  -25,  1,    6,
    -75,  -84,  46,   9,    39,   -58,  -64,  68,   73,   58,   14,   61,
    -17,  6,    -52,  79,   -47,  66,   -30,  104,  63,   -7,   17,   -36,
    -42,  39,   -59,  78,   2,    -39,  55,   81,   22,   -67,  93,   -43,
    60,   -33,  43,   63,   -5,   78,   28,   -67,  58,   83,   -53,  92,
    45,   103,  -70,  -66,  -22,  37,   85,   61,   -63,  -52,  -20,  -10,
    -50,  85,   -74,  -3,   23,   82,   42,   63,   -95,  -18,  -6,   61,
    -51,  14,   16,   20,   -54,  -20,  36,   85,   -17,  -17,  10,   39,
    35,   70,   53,   -80,  -67,  25,   -42,  40,   -71,  42,   -64,  -71,
    -17,  36,   81,   56,   65,   -27,  20,   43,   -94,  23,   -35,  -77,
    1,    -70,  -50,  21,   66,   22,   -47,  94,   29,   -43,  58,   54,
    23,   -47,  81,   33,   -64,  -65,  49,   42,   94,   -98,  17,   -64,
    12,   -65,  20,   70,   30,   51,   -63,  -63,  -28,  64,   65,   -66,
    83,   8,    -21,  -5,   1,    73,   62,   5,    24,   -67,  -85,  -34,
    3,    -36,  0,    -30,  48,   58,   18,   32,   60,   -67,  92,   9,
    34,   43,   -72,  -69,  -7,   -1,   40,   -91,  102,  -19,  25,   73,
    -98,  24,   -58,  52,   -26,  -40,  1,    39,   -38,  -17,  34,   21,
    -55,  14,   -63,  -23,  19,   -4,   -73,  65,   -27,  2,    18,   -58,
    -84,  -30,  78,   -65,  62,   85,   76,   -73,  -11,  68,   74,   85,
    74,   85,   80,   -7,   -16,  -51,  -22,  61,   -74,  -67,  75,   -11,
    -47,  43,   -24,  1,    43,   59,   25,   -46,  -20,  8,    15,   -27,
    -84,  -43,  94,   -10,  18,   14,   -41,  54,   -53,  52,   26,   54,
    -101, 28,   -61,  53,   93,   1,    -29,  -88,  -75,  -67,  0,    -14,
    24,   13,   71,   -47,  20,   60,   61,   73,   18,   50,   -19,  0,
    -43,  -55,  21,   93,   -41,  -66,  -95,  86,   57,   32,   45,   -79,
    45,   39,   62,   -14,  -30,  -25,  -33,  6,    10,   -5,   76,   2,
    -74,  80,   30,   -35,  55,   106,  -8,   -43,  54,   -71,  80,   10,
    73,   84,   18,   42,   -11,  -57,  -6,   -49,  -24,  14,   4,    43,
    -86,  56,   -1,   -53,  0,    28,   -56,  -22,  58,   -3,   -68,  64,
    -99,  63,   -91,  59,   -88,  -21,  -47,  -95,  -33,  -103, -29,  -68,
    68,   -44,  54,   -19,  11,   30,   -45,  -63,  -50,  -73,  -81,  94,
    56,   1,    5,    -12,  -13,  92,   21,   19,   -76,  21,   60,   34,
    -97,  72,   81,   61,   22,   24,   -8,   91,   2,    -33,  -79,  -53,
    -35,  75,   10,   53,   -9,   -10,  -73,  -69,  -34,  53,   64,   -26,
    -102, -77,  94,   -33,  3,    -85,  -85,  28,   -59,  -63,  -3,   -59,
    3,    67,   8,    -27,  -41,  -8,   31,   61,   97,   28,   -93,  -4,
    79,   -63,  -1,   56,   -100, 64,   -24,  -18,  -31,  -47,  -90,  -20,
    21,   17,   60,   -48,  39,   -84,  47,   15,   -4,   80,   38,   -84,
    84,   59,   -25,  -12,  7,    -26,  79,   27,   -57,  35,   90,   -53,
    -70,  39,   69,   -22,  40,   -56,  -48,  -69,  43,   30,   -57,  88,
    -98,  44,   -73,  9,    35,   -56,  53,   -51,  95,   90,   41,   84,
    -60,  -7,   -52,  82,   17,   67,   -31,  51,   -87,  -62,  5,    22,
    -68,  -5,   58,   -70,  53,   35,   13,   62,   67,   -66,  58,   -33,
    54,   21,   -51,  60,   -61,  68,   -73,  18,   59,   53,   43,   -82,
    18,   -91,  69,   -21,  30,   -8,   74,   -63,  105,  77,   19,   78,
    -60,  76,   98,   40,   -51,  49,   -18,  32,   -55,  -78,  -43,  55,
    77,   -67,  86,   7,    51,   46,   44,   85,   41,   -68,  95,   -46,
    -76,  11,   89,   35,   103,  22,   -38,  64,   -13,  6,    48,   -73,
    -93,  35,   -37,  -79,  -28,  31,   69,   20,   -58,  69,   -8,   24,
    -80,  -98,  -24,  14,   53,   53,   45,   26,   7,    31,   -1,   43,
    -8,   8,    -72,  -48,  -43,  -83,  61,   -19,  -51,  -5,   30,   -38,
    69,   16,   -80,  -52,  -3,   87,   -90,  -50,  95,   24,   71,   -82,
    67,   -16,  -59,  -2,   72,   -11,  -80,  -75,  -2,   -62,  -29,  101,
    -26,  15,   82,   -4,   22,   48,   9,    -73,  100,  38,   5,    -32,
    -24,  -21,  98,   -5,   -52,  95,   79,   -100, 13,   25,   6,    -31,
    79,   51,   35,   -75,  51,   15,   -92,  24,   27,   -22,  -26,  59,
    12,   -90,  98,   11,   -79,  -60,  -84,  58,   90,   -68,  -9,   95,
    20,   -53,  -10,  -88,  -53,  -81,  -64,  -45,  -43,  91,   31,   56,
    -65,  49,   40,   80,   -48,  90,   -21,  -25,  40,   -45,  67,   -62,
    73,   -65,  -12,  81,   89,   -86,  55,   -53,  81,   -4,   -82,  -74,
    -62,  58,   -91,  -60,  -21,  23,   23,   -18,  -87,  -67,  -47,  2,
    -4,   68,   -79,  -15,  -43,  69,   -73,  93,   39,   -74,  90,   -25,
    -58,  -11,  -56,  83,   10,   75,   -24,  43,   87,   -35,  -7,   13,
    37,   -15,  -49,  -50,  -31,  41,   -67,  63,   -35,  -81,  80,   -94,
    50,   19,   88,   18,   84,   34,   -98,  -51,  33,   -46,  12,   -91,
    -47,  66,   13,   20,   54,   28,   -10,  -79,  -34,  -81,  -18,  -90,
    -109, 26,   -68,  -29,  36,   68,   -90,  -77,  -52,  -19,  -23,  -53,
    -23,  -80,  -53,  91,   -4,   -45,  -3,   -69,  -47,  91,   85,   86,
    19,   -95,  -37,  5,    1,    -78,  -90,  62,   -75,  -72,  -50,  -5,
    -52,  60,   -58,  20,   -79,  11,   -49,  22,   -36,  7,    73,   89,
    34,   -72,  52,   -76,  -12,  76,   -55,  -20,  67,   -92,  -79,  -88,
    -89,  -10,  -70,  17,   -24,  54,   -27,  -23,  70,   -72,  -7,   -23,
    -102, -55,  -45,  -25,  0,    -87,  -60,  50,   15,   -80,  104,  11,
    -65,  23,   -89,  4,    26,   -69,  56,   21,   -51,  -49,  -59,  -66,
    -33,  74,   -64,  -104, 79,   0,    -21,  -7,   -91,  48,   -55,  -71,
    39,   7,    -43,  -107, 106,  55,   5,    6,    17,   -43,  -38,  1,
    -12,  -96,  82,   47,   101,  4,    16,   -38,  93,   68,   -44,  8,
    -43,  72,   87,   1,    55,   95,   47,   -60,  72,   -69,  66,   -13,
    -47,  -5,   0,    -14,  50,   -36,  -43,  -89,  61,   -97,  -68,  24,
    -25,  -27,  -23,  45,   16,   45,   -31,  -4,   68,   49,   -85,  -80,
    45,   -7,   -48,  54,   -2,   59,   72,   78,   65,   -15,  69,   88,
    57,   -46,  12,   54,   -30,  -87,  -23,  -71,  -45,  -4,   -64,  25,
    -30,  43,   -72,  -43,  37,   -22,  -29,  -30,  -7,   64,   -27,  99,
    -93,  69,   61,   -21,  43,   -43,  45,   -88,  -58,  -20,  101,  62,
    -10,  -6,   2,    14,   2,    -16,  25,   -29,  -26,  -68,  -49,  -38,
    -89,  -8,   -67,  10,   104,  65,   -38,  -64,  -36,  44,   71,   4,
    9,    -31,  -60,  -22,  29,   90,   -12,  -96,  -44,  69,   -31,  31,
    -90,  -70,  36,   -2,   71,   18,   -63,  -45,  27,   43,   -42,  38,
    -77,  64,   86,   -93,  9,    93,   -21,  -38,  62,   -63,  -71,  48,
    -89,  -39,  -53,  72,   40,   -56,  88,   -40,  83,   65,   -45,  -77,
    -2,   78,   20,   -32,  -70,  67,   -88,  -28,  105,  -44,  -73,  15,
    -25,  -71,  -1,   -65,  16,   -61,  50,   86,   -47,  -58,  110,  16,
    81,   -33,  76,   -35,  11,   -82,  -11,  10,   -82,  -84,  -13,  11,
    -91,  -84,  -64,  -36,  -60,  -90,  75,   44,   47,   -37,  6,    -8,
    -70,  -50,  -43,  -33,  21,   -23,  58,   71,   96,   68,   69,   64,
    -100, 44,   35,   -73,  -44,  -81,  59,   71,   -60,  6,    -62,  -67,
    71,   70,   -3,   56,   -72,  19,   41,   -42,  -33,  67,   -68,  -56,
    60,   -56,  -61,  58,   55,   14,   -77,  36,   70,   86,   50,   -21,
    -83,  -16,  38,   75,   31,   -10,  -42,  36,   -13,  -30,  25,   -8,
    10,   -70,  80,   75,   79,   10,   68,   -82,  -78,  -20,  12,   -86,
    53,   -79,  62,   -3,   -68,  -72,  2,    21,   -54,  -59,  -91,  60,
    57,   41,   22,   -45,  -63,  -32,  -41,  81,   -29,  -63,  0,    -97,
    79,   -39,  -33,  -28,  -44,  -68,  16,   71,   57,   -11,  82,   45,
    -31,  1,    50,   -49,  -80,  -10,  -81,  89,   38,   4,    -11,  -25,
    31,   -17,  -39,  52,   -85,  -17,  50,   -18,  90,   41,   -70,  -5,
    67,   -19,  -20,  -83,  82,   28,   73,   -59,  -18,  24,   96,   -84,
    -77,  -31,  49,   68,   55,   -22,  61,   -4,   101,  34,   39,   -8,
    -3,   -16,  -47,  -47,  40,   -96,  -53,  -37,  82,   102,  -41,  -1,
    82,   -9,   23,   44,   -35,  51,   2,    47,   -87,  -44,  -87,  67,
    12,   -86,  93,   -18,  69,   -36,  -68,  94,   58,   -11,  4,    58,
    22,   61,   88,   88,   -21,  7,    56,   -75,  43,   55,   79,   89,
    22,   -39,  -65,  93,   34,   24,   37,   52,   -7,   40,   20,   46,
    6,    60,   33,   55,   18,   64,   16,   15,   3,    -33,  -23,  -53,
    -83,  -2,   81,   -8,   1,    -84,  -106, -57,  92,   49,   -17,  13,
    -95,  -38,  16,   -85,  -70,  53,   -60,  60,   -91,  -17,  -64,  -50,
    -63,  47,   -23,  -7,   -82,  -53,  -63,  9,    -48,  41,   -41,  74,
    -17,  -79,  15,   64,   -98,  -59,  -31,  -26,  -27,  46,   -35,  83,
    -1,   -91,  -88,  60,   -39,  -25,  -67,  52,   -47,  -24,  -87,  101,
    -35,  24,   41,   82,   45,   93,   63,   77,   -63,  32,   -78,  -55,
    -1,   -16,  -77,  -31,  -24,  -74,  12,   -91,  -84,  4,    -77,  11,
    -19,  -82,  24,   85,   -19,  16,   -58,  -32,  -93,  66,   -50,  -4,
    -76,  -12,  26,   62,   55,   42,   -41,  -10,  -42,  -42,  64,   18,
    -52,  86,   50,   -51,  -90,  -55,  -6,   2,    72,   37,   -34,  -87,
    -77,  41,   -36,  4,    50,   7,    -61,  -95,  63,   -89,  76,   42,
    41,   79,   55,   80,   84,   -6,   90,   -75,  33,   -70,  59,   -87,
    14,   54,   26,   -72,  61,   62,   48,   -76,  19,   16,   5,    54,
    24,   75,   -31,  -25,  100,  79,   59,   17,   86,   68,   -54,  20,
    -72,  2,    32,   39,   87,   -70,  34,   -45,  -35,  -99,  36,   56,
    39,   59,   42,   -52,  32,   -75,  85,   46,   -52,  -60,  100,  17,
    97,   -67,  73,   23,   13,   -69,  63,   -70,  64,   66,   74,   59,
    -86,  -64,  -2,   -38,  21,   61,   -4,   18,   -56,  -52,  -22,  72,
    20,   -8,   -68,  -101, 7,    94,   -57,  -3,   23,   -78,  -3,   58,
    45,   -27,  68,   65,   -89,  -14,  100,  -2,   90,   33,   -29,  40,
    44,   49,   1,    -68,  74,   5,    -46,  78,   32,   -31,  43,   8,
    15,   56,   71,   -101, 18,   48,   -49,  13,   51,   62,   44,   -98,
    5,    -31,  -37,  -29,  -32,  -2,   58,   -37,  -89,  -2,   -51,  -15,
    50,   -30,  -36,  41,   -30,  51,   25,   90,   -31,  68,   -1,   22,
    81,   -74,  39,   2,    31,   -65,  -50,  19,   14,   49,   -21,  -58,
    -69,  17,   74,   -85,  13,   35,   -12,  -36,  68,   -75,  38,   77,
    -16,  84,   76,   -69,  -59,  -62,  90,   9,    2,    53,   -61,  0,
    57,   72,   84,   -89,  -77,  -80,  -37,  -1,   6,    -86,  -80,  -5,
    30,   56,   75,   88,   110,  52,   -55,  -33,  60,   80,   92,   52,
    27,   -10,  -22,  15,   65,   -10,  26,   84,   29,   26,   42,   17,
    -49,  -55,  28,   -22,  3,    -42,  -64,  -56,  -33,  88,   -53,  -15,
    61,   33,   -69,  8,    17,   -46,  -56,  -62,  -58,  -67,  29,   84,
    -46,  86,   -55,  -17,  35,   29,   56,   76,   -39,  -83,  -7,   -60,
    23,   -54,  17,   54,   -12,  46,   45,   -64,  5,    24,   -29,  20,
    -40,  -95,  16,   41,   -24,  -5,   92,   -95,  58,   -58,  -8,   95,
    61,   -5,   47,   -2,   -66,  -30,  101,  -52,  -1,   -100, 77,   -12,
    -54,  -50,  77,   84,   -42,  -73,  13,   79,   -54,  78,   -75,  -58,
    2,    -4,   -64,  -21,  -18,  -8,   94,   5,    -9,   -45,  23,   -73,
    -30,  -16,  -66,  -99,  -90,  -65,  -71,  -49,  47,   -41,  9,    -90,
    -40,  -49,  57,   58,   -90,  51,   -69,  16,   -72,  -35,  27,   -15,
    11,   25,   27,   -23,  -43,  81,   -42,  -75,  13,   -99,  41,   81,
    46,   -22,  58,   91,   71,   85,   -43,  87,   -15,  40,   -51,  -86,
    103,  72,   -51,  -27,  8,    7,    -60,  74,   89,   -78,  70,   60,
    -79,  17,   -60,  -94,  19,   13,   -76,  11,   -81,  45,   -32,  28,
    52,   65,   -66,  31,   85,   -18,  -44,  -18,  -73,  -11,  30,   28,
    99,   78,   -22,  68,   -67,  -78,  -34,  28,   38,   -46,  33,   -40,
    66,   38,   -32,  -59,  78,   24,   77,   -55,  76,   -22,  -38,  5,
    -36,  -4,   -68,  49,   41,   2,    8,    -73,  -54,  82,   -10,  45,
    -80,  -69,  -74,  -45,  -57,  -49,  80,   34,   -5,   -67,  -68,  -96,
    32,   -6,   44,   17,   -55,  51,   46,   32,   38,   22,   65,   -47,
    -78,  -46,  -96,  29,   -45,  -91,  30,   49,   20,   44,   -52,  -4,
    -65,  32,   52,   -9,   6,    81,   -10,  -62,  74,   -81,  18,   -57,
    9,    -61,  14,   77,   -12,  64,   34,   -47,  23,   -14,  15,   53,
    -56,  61,   -71,  60,   -71,  78,   -55,  -12,  13,   93,   -31,  -98,
    82,   -73,  -60,  15,   -53,  -71,  -41,  -10,  25,   84,   38,   -77,
    42,   40,   57,   -63,  84,   -33,  29,   66,   57,   -49,  101,  -4,
    80,   -93,  20,   56,   -84,  35,   -93,  33,   -86,  -80,  -27,  14,
    45,   -53,  89,   -51,  -80,  -60,  -1,   33,   -27,  25,   -29,  34,
    7,    -52,  -6,   -63,  29,   -80,  -30,  71,   -56,  -87,  -70,  -32,
    -19,  -94,  71,   82,   32,   -93,  66,   68,   -28,  40,   16,   9,
    17,   -60,  70,   -49,  -83,  -39,  98,   -23,  -65,  19,   -52,  -29,
    20,   -18,  4,    62,   -32,  77,   -64,  -19,  1,    19,   -52,  -88,
    58,   -43,  2,    53,   102,  -51,  76,   -21,  -47,  -15,  88,   95,
    51,   -99,  38,   42,   69,   -44,  -44,  12,   -55,  -80,  -34,  -39,
    -19,  25,   27,   -26,  33,   -25,  -19,  62,   50,   45,   -54,  38,
    22,   52,   -59,  14,   -88,  92,   77,   -51,  35,   0,    41,   -13,
    94,   -22,  5,    -80,  85,   -37,  -12,  -93,  14,   64,   49,   -14,
    -19,  75,   -17,  -96,  81,   3,    -88,  -89,  -79,  8,    41,   81,
    32,   -33,  -57,  -78,  81,   19,   -9,   17,   -68,  -73,  -27,  106,
    -84,  18,   24,   98,   21,   -5,   99,   73,   41,   -58,  -56,  86,
    43,   83,   80,   98,   16,   56,   102,  20,   -42,  -42,  103,  60,
    47,   -69,  77,   94,   -84,  -4,   -6,   59,   -32,  -34,  -69,  -19,
    103,  46,   -81,  -52,  48,   -52,  -37,  37,   -52,  -74,  53,   57,
    84,   -47,  -78,  13,   -91,  -59,  -69,  26,   81,   -42,  66,   14,
    -44,  80,   -33,  61,   40,   -71,  -49,  -19,  -96,  85,   -98,  32,
    32,   -21,  63,   15,   94,   49,   32,   -19,  57,   -56,  67,   43,
    27,   -62,  -75,  48,   80,   -90,  -74,  43,   40,   38,   35,   69,
    -79,  3,    -95,  85,   -50,  -57,  -34,  56,   -50,  -51,  37,   28,
    84,   -91,  -67,  10,   -60,  -6,   -24,  -87,  30,   50,   -21,  -49,
    55,   45,   30,   75,   59,   -50,  -32,  15,   40,   -40,  3,    18,
    16,   -53,  -30,  -10,  -57,  37,   34,   62,   -91,  73,   77,   75,
    -16,  56,   77,   23,   -38,  0,    29,   45,   -18,  51,   28,   41,
    24,   89,   -60,  2,    52,   -105, 11,   84,   -8,   -19,  22,   -108,
    1,    -92,  60,   -27,  62,   64,   0,    13,   -94,  18,   84,   40,
    -10,  37,   69,   -46,  73,   -5,   -81,  -82,  78,   -101, -55,  45,
    3,    62,   -47,  67,   -73,  -22,  -31,  -65,  -19,  14,   -7,   -77,
    -43,  9,    32,   -10,  -27,  -48,  55,   46,   69,   -12,  -79,  49,
    -7,   -16,  62,   12,   21,   -7,   -3,   12,   -91,  -69,  -79,  54,
    15,   -65,  -72,  -13,  48,   -76,  31,   88,   -31,  -19,  22,   82,
    -80,  8,    -9,   89,   -81,  53,   -67,  64,   -58,  66,   64,   -29,
    67,   47,   45,   -89,  -17,  75,   40,   81,   -59,  8,    25,   -73,
    -63,  -58,  -68,  70,   -25,  5,    11,   -44,  -28,  45,   87,   16,
    78,   -60,  6,    12,   -61,  -46,  19,   71,   -2,   72,   85,   52,
    90,   -15,  58,   -80,  81,   76,   47,   9,    -76,  -23,  -70,  31,
    80,   -84,  81,   -79,  42,   -32,  63,   -40,  82,   22,   -11,  -56,
    54,   -69,  -70,  70,   94,   25,   8,    -7,   -49,  77,   39,   70,
    64,   85,   -69,  -78,  -67,  77,   36,   63,   -13,  -19,  58,   -32,
    48,   75,   69,   66,   64,   -31,  11,   -95,  -99,  77,   39,   4,
    -44,  55,   85,   -72,  92,   93,   11,   -43,  -28,  72,   102,  37,
    29,   -33,  -94,  75,   -61,  38,   -7,   -57,  -55,  15,   -65,  -75,
    -35,  16,   64,   88,   98,   -63,  68,   22,   79,   -77,  48,   -67,
    -66,  34,   20,   -34,  4,    -26,  -84,  -32,  45,   -29,  87,   59,
    -24,  -58,  39,   76,   85,   -77,  3,    -60,  -14,  -77,  -89,  84,
    45,   79,   51,   -87,  23,   -70,  1,    -5,   -42,  -1,   80,   43,
    -43,  34,   55,   105,  57,   15,   40,   32,   29,   39,   29,   73,
    42,   -94,  45,   -20,  6,    79,   -53,  82,   -54,  -31,  -57,  -31,
    -46,  34,   -29,  -62,  5,    69,   -4,   13,   46,   22,   -49,  34,
    -60,  19,   17,   83,   65,   97,   -6,   3,    -93,  46,   -26,  -35,
    66,   -56,  -92,  -58,  33,   -80,  87,   73,   -16,  74,   74,   -96,
    43,   -31,  -30,  -11,  73,   -21,  5,    -18,  -97,  0,    -30,  -44,
    -36,  -98,  -21,  68,   -6,   33,   94,   -37,  -57,  -12,  68,   24,
    37,   -2,   77,   -1,   51,   -88,  -1,   49,   -76,  -70,  -94,  -103,
    59,   -58,  79,   -60,  78,   -101, -42,  -80,  -65,  -12,  54,   -18,
    4,    34,   33,   35,   -48,  -89,  -31,  -25,  -88,  32,   -69,  -19,
    79,   -77,  67,   -38,  4,    42,   15,   45,   -3,   76,   -62,  32,
    -4,   -78,  13,   48,   48,   -88,  93,   82,   -57,  41,   80,   -109,
    38,   -16,  -98,  40,   79,   -23,  -79,  -9,   -15,  39,   -44,  -43,
    74,   20,   -79,  23,   60,   32,   86,   36,   42,   79,   64,   -72,
    -21,  -24,  76,   91,   64,   56,   -45,  2,    -41,  -64,  41,   31,
    20,   -79,  62,   -71,  -68,  50,   -88,  -34,  22,   -68,  -52,  -20,
    -75,  86,   17,   -40,  31,   -66,  93,   87,   65,   31,   -85,  -72,
    -45,  99,   1,    91,   -93,  -88,  69,   30,   -52,  45,   -80,  21,
    43,   -82,  -7,   -61,  66,   28,   -63,  62,   53,   6,    -32,  -66,
    63,   -28,  66,   18,   -67,  14,   -42,  63,   39,   88,   -44,  -88,
    -12,  75,   -87,  96,   78,   40,   -68,  1,    49,   22,   81,   50,
    98,   63,   15,   -82,  7,    80,   -91,  32,   64,   -86,  -1,   64,
    -58,  58,   -37,  57,   -12,  38,   -31,  -70,  -4,   -34,  32,   0,
    -74,  65,   -48,  -19,  10,   -52,  -89,  -23,  52,   71,   51,   18,
    -22,  33,   -87,  -19,  -50,  35,   -43,  34,   -78,  -73,  -2,   -85,
    -84,  17,   -25,  51,   -16,  68,   -71,  -69,  46,   -69,  -39,  8,
    12,   51,   47,   18,   52,   48,   -42,  82,   -78,  -57,  51,   82,
    38,   0,    76,   -49,  71,   39,   -7,   -97,  -60,  -32,  -18,  -52,
    38,   69,   2,    23,   57,   -85,  86,   -1,   -10,  -77,  31,   -18,
    10,   -62,  65,   -16,  50,   -74,  86,   -95,  -56,  63,   -2,   48,
    -54,  49,   -91,  -13,  49,   57,   -66,  6,    -61,  -68,  31,   0,
    -10,  -66,  -97,  28,   -89,  39,   70,   36,   -40,  -35,  72,   -87,
    47,   -39,  69,   82,   23,   81,   -33,  -94,  -54,  49,   49,   54,
    72,   56,   -90,  -55,  -29,  -39,  50,   -38,  44,   -60,  -78,  -89,
    37,   47,   68,   -75,  -81,  48,   4,    -42,  -80,  18,   -35,  62,
    -22,  56,   -52,  82,   -96,  68,   71,   10,   84,   23,   -98,  22,
    -77,  -62,  -26,  18,   38,   28,   -87,  -18,  43,   80,   76,   51,
    -31,  31,   55,   51,   60,   41,   -38,  -50,  10,   45,   30,   84,
    9,    4,    -98,  -47,  -81,  -87,  1,    12,   -93,  -33,  -45,  69,
    94,   16,   -76,  -30,  68,   91,   95,   84,   -88,  -43,  -54,  53,
    50,   54,   -90,  47,   16,   31,   -92,  2,    64,   83,   -79,  46,
    -31,  -12,  -53,  47,   -56,  -54,  84,   -41,  -75,  66,   21,   22,
    -92,  -10,  -41,  -58,  -22,  8,    2,    27,   -38,  36,   87,   92,
    68,   -49,  74,   77,   17,   -59,  -22,  48,   4,    -77,  9,    -81,
    11,   -37,  76,   -35,  24,   -70,  -28,  72,   -6,   -82,  -74,  15,
    23,   39,   73,   7,    -68,  -46,  93,   83,   81,   44,   -81,  -89,
    -77,  81,   -54,  39,   7,    25,   30,   8,    -48,  -29,  -89,  31,
    15,   -65,  1,    -5,   43,   -65,  -38,  38,   -21,  27,   -25,  -32,
    47,   45,   89,   29,   -6,   80,   55,   -95,  -71,  -81,  22,   28,
    22,   -59,  41,   -45,  64,   -93,  72,   -58,  20,   -24,  33,   33,
    89,   88,   -68,  65,   -18,  -50,  83,   4,    -82,  -67,  -45,  -91,
    80,   -36,  -52,  41,   46,   -80,  15,   84,   74,   -86,  -15,  -48,
    -21,  26,   -94,  -50,  27,   91,   79,   7,    23,   82,   -82,  14,
    -86,  30,   64,   92,   17,   70,   -24,  -64,  -27,  88,   37,   -32,
    70,   -76,  8,    -15,  11,   45,   75,   34,   -1,   -46,  -53,  33,
    14,   12,   82,   -64,  23,   8,    36,   -94,  80,   -102, -27,  -31,
    99,   -34,  -1,   67,   19,   12,   86,   28,   -20,  83,   69,   -6,
    4,    -77,  -77,  -65,  25,   -92,  46,   51,   16,   78,   58,   63,
    3,    73,   18,   43,   -90,  34,   -17,  -51,  -17,  -70,  68,   -2,
    57,   -71,  36,   16,   -74,  5,    -88,  52,   -11,  1,    -59,  16,
    78,   -49,  77,   -37,  -44,  -5,   65,   46,   -67,  76,   -65,  15,
    -30,  13,   32,   51,   -30,  40,   88,   -74,  33,   -53,  71,   34,
    -45,  16,   9,    -40,  69,   -38,  86,   82,   6,    84,   -14,  74,
    -50,  61,   34,   -72,  37,   85,   82,   -10,  -1,   -80,  -79,  81,
    17,   -8,   52,   -61,  51,   -83,  -50,  -23,  80,   44,   -24,  46,
    52,   5,    58,   -36,  49,   40,   77,   28,   -28,  -61,  12,   74,
    -86,  -47,  66,   -35,  -20,  -41,  -17,  -66,  26,   -22,  71,   12,
    72,   8,    -73,  50,   -58,  16,   -87,  -79,  61,   -27,  3,    84,
    -44,  -83,  89,   36,   -11,  -85,  -71,  -57,  -25,  65,   13,   -83,
    90,   -42,  56,   -79,  -47,  34,   -39,  29,   -18,  -34,  -93,  9,
    -77,  -46,  13,   -51,  -76,  -88,  42,   -28,  85,   -84,  -80,  -76,
    -1,   -94,  43,   34,   13,   -69,  -25,  66,   -87,  64,   7,    1,
    -21,  -76,  12,   -76,  -4,   59,   -30,  87,   13,   -55,  -58,  -2,
    -33,  49,   56,   0,    -59,  -6,   8,    -75,  32,   -43,  -76,  -92,
    59,   55,   22,   48,   52,   21,   -49,  -70,  -65,  35,   -85,  -88,
    -19,  40,   18,   64,   5,    -79,  -7,   93,   -78,  -44,  24,   28,
    -33,  93,   34,   -3,   25,   -21,  -66,  -7,   50,   -46,  -45,  -77,
    17,   38,   -23,  -57,  -55,  -46,  60,   64,   -51,  -60,  -37,  -44,
    -54,  -80,  72,   -39,  -101, -80,  -83,  -65,  -40,  22,   -37,  46,
    -54,  60,   -2,   63,   56,   -57,  -73,  -31,  -88,  -11,  76,   77,
    -14,  51,   1,    -17,  -58,  4,    0,    -7,   65,   67,   -75,  100,
    -52,  -48,  -64,  74,   5,    -48,  90,   86,   85,   -41,  76,   -52,
    -56,  -82,  85,   -66,  65,   82,   0,    36,   -15,  -45,  92,   65,
    47,   -70,  11,   59,   -29,  46,   -77,  -44,  -31,  -15,  92,   -51,
    -3,   -78,  67,   25,   28,   55,   41,   -73,  13,   -7,   -32,  -83,
    -72,  -20,  -54,  11,   -23,  -33,  -13,  15,   -66,  -17,  94,   -85,
    64,   20,   69,   -11,  96,   -73,  76,   30,   77,   -16,  67,   69,
    -25,  -83,  -93,  45,   29,   55,   -73,  -84,  -43,  73,   98,   -17,
    79,   46,   -19,  -62,  102,  2,    58,   -45,  -95,  -23,  88,   -9,
    57,   -97,  86,   37,   -37,  106,  24,   -7,   21,   40,   70,   -29,
    -50,  -86,  14,   -14,  -25,  52,   -68,  85,   -70,  -66,  -80,  49,
    29,   -75,  -98,  -34,  -76,  -78,  37,   81,   -87,  -20,  106,  -26,
    66,   -83,  -39,  7,    81,   -27,  83,   -43,  74,   20,   -38,  97,
    -60,  -6,   52,   75,   85,   62,   45,   57,   75,   71,   85,   -40,
    -59,  70,   5,    -76,  -22,  -53,  -31,  70,   -36,  -82,  -92,  -68,
    -82,  85,   -68,  -72,  72,   -23,  1,    -39,  79,   -59,  -25,  -14,
    -39,  19,   19,   82,   21,   29,   22,   13,   -49,  45,   42,   54,
    24,   89,   15,   6,    -73,  -57,  -29,  -51,  -25,  -17,  -92,  88,
    41,   -2,   -27,  -9,   -77,  -47,  -63,  4,    -41,  -1,   91,   -41,
    36,   -4,   68,   -9,   -74,  49,   95,   58,   51,   106,  93,   84,
    94,   -15,  -24,  50,   -59,  -71,  -7,   -62,  -77,  90,   -78,  -54,
    -30,  92,   -62,  -66,  40,   -14,  -75,  -49,  -4,   -16,  -80,  73,
    106,  36,   -22,  4,    -78,  -56,  -17,  -71,  -53,  50,   -31,  87,
    34,   -39,  -4,   -64,  -69,  7,    22,   94,   35,   54,   85,   7,
    -65,  -10,  -102, -43,  -41,  -25,  -61,  6,    28,   -89,  54,   2,
    -5,   -30,  50,   -17,  60,   70,   66,   88,   -88,  33,   65,   13,
    67,   73,   -7,   -78,  -84,  77,   -33,  -42,  4,    -1,   -42,  14,
    -77,  -4,   43,   -5,   29,   36,   73,   -46,  -51,  79,   43,   55,
    81,   10,   -24,  86,   -83,  36,   26,   79,   -69,  -32,  -52,  -60,
    19,   -62,  -3,   84,   46,   -82,  83,   2,    -93,  -58,  98,   -62,
    -66,  -13,  -82,  95,   22,   -59,  -37,  78,   66,   -2,   52,   39,
    -9,   -16,  -16,  -71,  -69,  -20,  -32,  3,    4,    -60,  -6,   -66,
    71,   28,   -37,  -63,  53,   -82,  56,   -57,  -96,  19,   -57,  62,
    107,  -24,  -50,  -37,  93,   -43,  27,   81,   -102, 45,   -25,  55,
    47,   -82,  36,   -31,  -55,  0,    -22,  89,   -73,  -73,  -5,   20,
    -40,  -3,   36,   2,    -33,  68,   83,   21,   -35,  -37,  -2,   34,
    -21,  104,  -7,   46,   64,   -89,  -48,  -22,  -55,  18,   66,   84,
    -24,  -83,  -28,  -36,  40,   63,   -22,  79,   74,   -24,  -91,  23,
    89,   15,   -90,  -4,   -31,  -14,  -25,  9,    -53,  70,   -96,  11,
    -8,   -12,  -38,  -59,  61,   -5,   -23,  91,   -90,  -64,  27,   -74,
    -30,  -77,  57,   -15,  79,   51,   79,   33,   -32,  55,   61,   -2,
    1,    -76,  -25,  83,   -91,  27,   -45,  -10,  -7,   79,   89,   31,
    -47,  102,  26,   -62,  -75,  -40,  97,   -38,  10,   -58,  -36,  -29,
    40,   -10,  24,   -72,  19,   68,   -61,  -34,  -73,  -72,  39,   17,
    -16,  -30,  64,   -42,  16,   -88,  -43,  -6,   52,   43,   -12,  -4,
    85,   27,   48,   -48,  35,   42,   93,   51,   -40,  8,    -15,  -64,
    70,   -78,  80,   -81,  61,   -2,   -76,  99,   -94,  -26,  -93,  11,
    -74,  -46,  -58,  15,   87,   -34,  -57,  96,   -100, 86,   18,   -94,
    -36,  58,   -25,  -49,  -53,  3,    6,    -36,  -14,  -57,  26,   -84,
    -7,   93,   -4,   72,   46,   -93,  -66,  45,   -76,  -43,  44,   -78,
    75,   77,   -34,  -71,  -63,  -60,  12,   -29,  -67,  -13,  68,   -18,
    63,   94,   -12,  -78,  102,  -51,  36,   26,   -78,  48,   2,    23,
    -59,  91,   -56,  -82,  107,  -36,  87,   34,   -11,  -84,  45,   -26,
    -72,  -62,  -51,  -69,  105,  -73,  -65,  -83,  27,   -1,   -9,   91,
    -33,  -45,  -89,  -20,  -16,  93,   -37,  -21,  74,   -67,  0,    -42,
    92,   68,   42,   -76,  107,  -9,   69,   -59,  35,   93,   41,   -33,
    -60,  69,   31,   -79,  -79,  -37,  -13,  36,   -44,  -46,  -20,  -90,
    33,   94,   -40,  39,   -53,  5,    78,   19,   -65,  31,   -19,  -27,
    -4,   -23,  69,   38,   74,   -67,  -1,   -10,  27,   -77,  19,   -6,
    55,   -89,  55,   21,   -17,  -16,  -62,  -66,  -84,  -69,  23,   -79,
    99,   -21,  41,   59,   7,    -91,  -59,  -15,  47,   -82,  85,   -39,
    36,   -68,  -73,  -55,  -76,  71,   49,   62,   24,   -70,  63,   18,
    106,  6,    -80,  94,   69,   93,   92,   -69,  -54,  -50,  -7,   62,
    82,   -25,  -47,  -26,  -58,  74,   -57,  23,   -17,  -54,  46,   17,
    82,   62,   -3,   24,   -44,  50,   -12,  -14,  81,   -29,  -76,  93,
    -11,  25,   84,   -10,  -13,  30,   -31,  74,   -68,  91,   -12,  -2,
    41,   58,   55,   -28,  48,   0,    -67,  -13,  -6,   89,   28,   -69,
    -46,  -49,  69,   36,   15,   -64,  -80,  -18,  67,   -21,  57,   -90,
    79,   39,   65,   -6,   48,   0,    -71,  51,   -52,  19,   0,    71,
    -31,  -67,  45,   -25,  -12,  -6,   45,   74,   -97,  76,   9,    92,
    77,   -75,  -12,  90,   -34,  52,   -6,   2,    -43,  -35,  58,   37,
    20,   -44,  51,   -61,  -78,  -58,  -73,  -50,  33,   61,   -79,  7,
    1,    -36,  -68,  83,   58,   -37,  70,   104,  59,   94,   10,   -63,
    -82,  -46,  -55,  79,   53,   -63,  82,   4,    78,   -7,   -8,   87,
    44,   2,    -52,  -32,  -87,  -59,  6,    86,   69,   -53,  81,   -63,
    48,   -12,  3,    -75,  51,   -92,  5,    -65,  -18,  81,   41,   11,
    -79,  72,   46,   34,   -73,  -95,  106,  -25,  48,   83,   -1,   1,
    -8,   -39,  39,   43,   34,   -55,  -49,  -27,  -59,  -70,  -4,   -74,
    86,   32,   31,   80,   71,   -36,  87,   102,  -6,   -34,  57,   -67,
    21,   75,   -45,  63,   99,   -57,  -8,   76,   63,   83,   96,   -71,
    44,   -9,   -71,  50,   -40,  -13,  22,   53,   -69,  -26,  46,   2,
    89,   14,   20,   17,   66,   -32,  61,   9,    -27,  42,   -65,  -41,
    51,   -37,  14,   -36,  14,   70,   37,   -73,  -15,  -3,   -82,  -18,
    -68,  -41,  -21,  63,   62,   -64,  91,   46,   -87,  0,    -25,  -84,
    14,   78,   8,    -23,  58,   85,   84,   104,  19,   -91,  -63,  -86,
    -24,  52,   38,   38,   4,    -99,  -38,  -46,  40,   -11,  -37,  34,
    46,   -49,  -89,  -24,  36,   -34,  -78,  43,   -53,  -71,  -44,  37,
    -11,  -67,  14,   61,   23,   15,   -69,  -4,   52,   -90,  -60,  95,
    9,    -53,  -44,  -46,  57,   85,   -72,  32,   7,    -85,  -17,  -88,
    28,   33,   25,   -49,  -56,  -45,  35,   5,    -19,  95,   -54,  43,
    72,   -72,  12,   63,   16,   -67,  -76,  21,   -27,  -14,  71,   -41,
    0,    44,   24,   -45,  -23,  -53,  88,   16,   13,   10,   100,  -27,
    7,    -58,  -49,  -28,  -46,  97,   104,  -62,  -16,  44,   7,    75,
    97,   71,   -36,  -73,  -6,   -36,  93,   31,   18,   42,   -81,  -51,
    99,   -31,  -91,  -38,  -66,  78,   -54,  84,   -64,  29,   16,   -41,
    30,   -48,  84,   -2,   -55,  -11,  -59,  14,   -83,  -75,  15,   78,
    -17,  63,   50,   -42,  3,    -38,  -11,  63,   -98,  54,   -67,  -12,
    62,   14,   -34,  18,   60,   -4,   -57,  -78,  -32,  -39,  -61,  68,
    -25,  -55,  -59,  -61,  58,   -15,  -60,  -37,  4,    31,   37,   56,
    -7,   -27,  -13,  27,   88,   66,   -69,  86,   -27,  -30,  32,   -41,
    -41,  91,   37,   -86,  51,   -37,  -39,  46,   -4,   8,    -33,  62,
    21,   81,   77,   -10,  39,   14,   36,   -17,  33,   -29,  -13,  45,
    19,   -35,  78,   79,   79,   86,   -49,  12,   -71,  17,   88,   -36,
    -10,  -84,  -7,   26,   -31,  -98,  -60,  -41,  63,   -52,  -36,  4,
    -59,  93,   -32,  -96,  37,   -5,   39,   2,    -85,  90,   -27,  -66,
    64,   -47,  -47,  88,   -13,  -58,  82,   31,   28,   -45,  0,    -61,
    -13,  -84,  -26,  60,   77,   66,   107,  11,   13,   76,   -41,  -27,
    87,   100,  -50,  56,   7,    68,   13,   52,   22,   58,   -96,  83,
    -51,  83,   40,   -55,  -65,  -25,  102,  81,   -80,  -81,  -23,  74,
    -67,  -81,  44,   -31,  -16,  -34,  -48,  -34,  -36,  -13,  16,   25,
    -4,   5,    -40,  -43,  62,   76,   39,   -63,  -12,  39,   -59,  75,
    -31,  -67,  7,    13,   24,   -74,  20,   -67,  -76,  -87,  68,   -50,
    59,   -76,  12,   17,   -56,  60,   27,   -58,  65,   74,   0,    -72,
    -81,  -85,  -20,  85,   -82,  -18,  -68,  -84,  -28,  79,   -8,   -32,
    -79,  64,   60,   -51,  -61,  -37,  -44,  48,   76,   80,   -36,  83,
    105,  53,   56,   86,   68,   -75,  77,   8,    -65,  -92,  50,   -30,
    -3,   45,   -26,  -69,  -76,  50,   -24,  22,   -50,  -15,  78,   6,
    -65,  94,   -61,  50,   -76,  74,   -16,  -36,  17,   91,   -13,  -85,
    12,   28,   -56,  78,   14,   -10,  -61,  72,   -69,  -17,  76,   63,
    111,  -2,   69,   10,   74,   -3,   -42,  27,   -8,   85,   -13,  44,
    -10,  72,   -81,  60,   -68,  3,    -37,  -66,  -12,  -25,  12,   68,
    -3,   -66,  51,   -60,  -35,  -63,  -42,  -1,   78,   6,    -38,  62,
    -51,  108,  -50,  11,   31,   30,   7,    -12,  79,   74,   -99,  31,
    77,   67,   -12,  -17,  16,   -57,  -63,  42,   -38,  61,   55,   83,
    -47,  -48,  -41,  28,   -31,  27,   82,   16,   -93,  -1,   46,   48,
    -23,  -57,  64,   29,   -60,  -91,  0,    60,   9,    64,   21,   33,
    2,    91,   -101, -42,  86,   -21,  22,   -53,  -26,  -85,  38,   48,
    109,  10,   -101, -63,  -58,  -5,   -70,  27,   -83,  28,   -88,  53,
    -44,  48,   36,   -31,  -47,  -56,  96,   -3,   15,   18,   -56,  39,
    -38,  58,   -98,  28,   74,   -59,  77,   -42,  -62,  7,    -30,  8,
    -11,  79,   -95,  -19,  31,   -79,  60,   58,   43,   86,   -52,  38,
    52,   -66,  -98,  -63,  59,   45,   -71,  42,   -26,  -67,  49,   -8,
    -69,  69,   -37,  103,  18,   55,   6,    52,   -75,  68,   -45,  -13,
    -67,  -72,  72,   -36,  76,   -32,  17,   -54,  -90,  74,   83,   -62,
    64,   7,    -23,  -58,  -89,  0,    -65,  24,   7,    -76,  10,   78,
    43,   54,   -20,  85,   -12,  -6,   108,  32,   25,   -25,  25,   -6,
    84,   45,   -18,  26,   36,   -84,  61,   56,   44,   1,    52,   -16,
    -53,  0,    -101, -39,  -20,  -34,  108,  -48,  36,   -9,   88,   -65,
    45,   62,   -24,  -88,  -2,   45,   -15,  -27,  71,   -55,  78,   48,
    9,    -47,  -106, -1,   -3,   45,   -2,   -3,   -60,  43,   -8,   1,
    -42,  35,   -47,  -40,  -73,  97,   -72,  8,    -90,  22,   44,   -21,
    -4,   -24,  -101, -75,  26,   -55,  -51,  41,   -113, 10,   23,   87,
    -12,  -44,  27,   90,   -77,  27,   35,   33,   25,   -25,  57,   53,
    -43,  58,   0,    -7,   -38,  74,   -45,  -21,  -9,   45,   -80,  -32,
    26,   -77,  1,    -42,  20,   -89,  -47,  23,   36,   -44,  82,   24,
    -22,  -67,  -73,  -60,  41,   8,    -16,  27,   -60,  -70,  6,    -71,
    51,   55,   23,   79,   0,    -94,  71,   18,   67,   -46,  63,   -76,
    36,   107,  39,   -32,  -36,  -82,  37,   8,    46,   -84,  24,   8,
    48,   26,   -65,  74,   -58,  27,   -22,  -19,  80,   24,   19,   56,
    -20,  -33,  25,   -6,   -60,  11,   21,   -81,  -50,  5,    42,   -49,
    88,   -82,  -58,  -64,  -23,  -32,  11,   -75,  -84,  -69,  31,   -38,
    72,   -64,  -102, -40,  79,   -97,  0,    75,   -50,  -83,  -53,  -42,
    -71,  33,   -21,  -27,  56,   49,   -38,  -34,  57,   76,   -47,  -7,
    -13,  -74,  -6,   -49,  18,   -59,  -65,  -63,  -46,  12,   -59,  67,
    -65,  30,   -57,  -40,  33,   32,   10,   106,  -27,  -4,   64,   86,
    -34,  5,    -80,  -12,  44,   46,   -65,  69,   11,   86,   78,   -78,
    14,   37,   31,   3,    -58,  -48,  -23,  -2,   37,   -43,  75,   69,
    103,  42,   37,   56,   89,   47,   -41,  4,    -64,  26,   -39,  48,
    26,   35,   60,   74,   -68,  -18,  1,    -36,  47,   -42,  -78,  80,
    -60,  52,   78,   45,   32,   -83,  -78,  -70,  -100, 10,   -86,  52,
    -69,  -79,  -102, 71,   -79,  46,   -3,   -43,  -43,  -60,  -5,   -85,
    82,   -12,  37,   -78,  85,   -57,  104,  70,   36,   -23,  -8,   -32,
    -29,  -48,  -41,  -30,  -20,  -54,  99,   47,   -79,  20,   8,    -38,
    65,   -11,  28,   -55,  -56,  -24,  -51,  50,   -44,  -50,  -64,  -48,
    -65,  -32,  50,   -74,  -76,  74,   -73,  -45,  -5,   -33,  -74,  95,
    107,  -43,  -7,   15,   -43,  -25,  -74,  -45,  1,    70,   21,   -86,
    6,    90,   -9,   -42,  95,   84,   107,  86,   49,   -44,  -4,   38,
    -32,  -58,  -13,  25,   94,   72,   -63,  -15,  25,   54,   -87,  -9,
    -47,  -16,  -72,  44,   -94,  16,   98,   69,   39,   68,   -18,  -52,
    -1,   -10,  -84,  -80,  92,   60,   -50,  31,   20,   -45,  31,   -77,
    -2,   -42,  16,   -21,  -26,  -37,  79,   70,   48,   -81,  42,   -41,
    98,   22,   -28,  75,   63,   69,   82,   44,   14,   45,   19,   -21,
    102,  -27,  -63,  49,   61,   34,   -47,  32,   68,   42,   -66,  -71,
    -49,  -3,   57,   -92,  -94,  16,   7,    33,   -50,  -58,  26,   -87,
    -59,  25,   -56,  -28,  -57,  68,   34,   6,    40,   2,    86,   -63,
    -50,  42,   -10,  -41,  35,   20,   21,   -43,  -36,  7,    -98,  95,
    46,   66,   11,   88,   -99,  -67,  -67,  99,   42,   0,    -44,  -40,
    67,   61,   66,   75,   -42,  -35,  -42,  23,   -30,  -44,  30,   -6,
    2,    -55,  -10,  63,   32,   -16,  30,   -77,  -77,  -66,  -99,  67,
    -25,  -25,  -59,  -4,   20,   -82,  6,    97,   47,   36,   -45,  -26,
    -50,  -26,  57,   17,   -20,  -32,  103,  -25,  65,   -23,  25,   40,
    -1,   23,   37,   44,   86,   -30,  23,   72,   -54,  -24,  -95,  24,
    106,  42,   22,   14,   -88,  56,   0,    88,   46,   81,   38,   -65,
    3,    90,   28,   -30,  -40,  58,   -56,  -30,  -43,  -20,  56,   -41,
    84,   -32,  -96,  -46,  -75,  -46,  102,  -8,   22,   -2,   24,   39,
    -22,  -58,  4,    69,   82,   57,   -58,  51,   33,   -87,  91,   38,
    -2,   -81,  0,    72,   -71,  -84,  -69,  98,   80,   31,   72,   -75,
    46,   -26,  24,   20,   -72,  44,   30,   84,   77,   -56,  -21,  79,
    93,   -66,  -104, 29,   -3,   -20,  76,   49,   -85,  58,   -7,   7,
    -78,  -57,  -16,  -102, -11,  -95,  97,   -41,  -63,  -77,  0,    79,
    31,   -18,  -92,  -24,  -48,  -85,  56,   -62,  -63,  18,   -4,   64,
    -48,  -83,  48,   53,   -12,  56,   -9,   30,   31,   41,   -7,   -51,
    -50,  -56,  -68,  -39,  -76,  -72,  -17,  63,   40,   59,   2,    -95,
    38,   -31,  44,   -11,  48,   50,   103,  -6,   -93,  -47,  93,   61,
    -39,  -1,   -42,  -79,  -50,  -76,  -43,  51,   -17,  -90,  69,   66,
    -33,  -50,  -77,  -72,  -68,  84,   38,   -24,  -30,  -74,  -5,   -22,
    22,   49,   16,   42,   -77,  -14,  -46,  59,   -33,  -56,  27,   97,
    50,   -11,  -50,  57,   92,   77,   9,    -27,  -67,  -13,  -59,  97,
    -74,  -71,  59,   -62,  2,    -63,  -46,  19,   -57,  -66,  74,   -1,
    16,   -36,  50,   -87,  13,   -4,   -76,  -67,  50,   97,   -29,  98,
    -39,  -71,  66,   95,   77,   49,   69,   102,  9,    65,   82,   -60,
    44,   38,   67,   -62,  82,   43,   83,   98,   81,   88,   66,   102,
    95,   82,   -90,  11,   -65,  -61,  58,   -62,  -56,  -28,  -91,  -17,
    -56,  -27,  63,   51,   -42,  44,   -4,   -49,  58,   62,   81,   -38,
    -60,  18,   1,    -16,  -52,  -24,  38,   80,   41,   -51,  -41,  -60,
    82,   42,   -42,  15,   -43,  82,   -34,  64,   -56,  69,   -45,  69,
    102,  -18,  -10,  72,   -66,  71,   -18,  -76,  46,   -6,   -36,  -83,
    -45,  -63,  -108, 85,   -70,  93,   -38,  97,   -68,  33,   -43,  -2,
    74,   -76,  28,   57,   -76,  100,  53,   -59,  25,   -82,  -14,  -17,
    109,  70,   72,   44,   13,   91,   44,   -18,  56,   -15,  -5,   -45,
    46,   -52,  -97,  50,   51,   3,    -38,  22,   8,    54,   -87,  91,
    74,   -55,  -28,  -49,  -82,  29,   -6,   107,  -88,  28,   90,   -70,
    42,   87,   -42,  82,   -85,  7,    -76,  80,   -18,  90,   -29,  -69,
    -70,  110,  73,   76,   54,   -21,  -63,  28,   68,   29,   16,   -58,
    11,   62,   55,   -80,  -15,  -33,  91,   -74,  -79,  -81,  -66,  73,
    -46,  69,   55,   14,   -102, 0,    3,    -48,  7,    -46,  67,   -74,
    -35,  -4,   -82,  74,   45,   -63,  -46,  20,   13,   5,    24,   46,
    101,  -33,  32,   -77,  50,   19,   109,  -15,  -19,  43,   -79,  75,
    -67,  -2,   -75,  -63,  15,   -88,  30,   -3,   -3,   23,   -64,  31,
    36,   44,   -37,  74,   -24,  -16,  -36,  54,   -43,  -71,  -50,  3,
    -56,  47,   16,   -6,   27,   -52,  -78,  54,   74,   69,   7,    -38,
    -14,  9,    -5,   27,   67,   41,   30,   -67,  27,   30,   -19,  95,
    75,   -35,  -93,  -65,  -44,  96,   77,   81,   71,   16,   -14,  -66,
    -27,  44,   -106, -53,  92,   -8,   40,   -5,   83,   56,   70,   82,
    86,   50,   -23,  17,   44,   -35,  55,   43,   80,   73,   -38,  81,
    -43,  31,   49,   49,   -45,  -41,  -65,  -14,  -39,  40,   -88,  22,
    95,   -78,  -97,  10,   -89,  92,   34,   -83,  -12,  -41,  10,   6,
    105,  92,   -36,  65,   -80,  18,   8,    9,    -109, -19,  89,   -62,
    -76,  0,    65,   -23,  2,    -13,  76,   46,   -11,  6,    87,   8,
    10,   49,   -70,  84,   -5,   67,   49,   -83,  -65,  -23,  -92,  -3,
    5,    -2,   49,   -31,  -100, -3,   12,   -59,  36,   55,   25,   -92,
    -51,  -81,  -7,   92,   -85,  -85,  -59,  -80,  -49,  4,    -4,   20,
    -16,  80,   -105, -32,  -19,  -49,  64,   72,   4,    46,   -53,  73,
    -38,  76,   -57,  20,   45,   -76,  96,   70,   -6,   -69,  51,   41,
    -64,  50,   32,   -52,  -4,   -69,  9,    79,   48,   -55,  -5,   -27,
    37,   9,    -51,  -66,  -46,  6,    -35,  2,    33,   86,   -24,  -10,
    78,   -41,  -63,  101,  70,   -74,  38,   81,   65,   -79,  42,   -30,
    14,   88,   -64,  90,   -11,  -75,  -35,  40,   -47,  -68,  -41,  -62,
    65,   -90,  27,   72,   -89,  -21,  68,   52,   -97,  -26,  -17,  15,
    -46,  5,    -83,  37,   78,   -74,  -60,  27,   -22,  -71,  -15,  82,
    96,   81,   51,   -64,  -21,  -71,  -64,  -61,  -10,  75,   6,    65,
    -20,  -53,  67,   28,   28,   5,    48,   -88,  45,   -46,  -13,  78,
    66,   46,   -9,   81,   82,   86,   -51,  -14,  -40,  -17,  31,   -81,
    3,    -11,  -86,  49,   81,   -77,  31,   10,   -37,  -21,  -67,  -47,
    45,   46,   -4,   60,   26,   -40,  -71,  -1,   -111, 86,   89,   46,
    -29,  -15,  63,   -78,  17,   -10,  54,   63,   2,    38,   -24,  41,
    -36,  78,   -26,  -38,  -63,  -64,  73,   -29,  79,   -29,  96,   82,
    -30,  -51,  37,   -82,  85,   97,   -17,  -47,  -24,  -89,  96,   -93,
    66,   28,   -9,   -68,  44,   -88,  61,   -63,  57,   -52,  44,   65,
    52,   1,    -105, -92,  -13,  14,   -86,  -18,  -96,  -74,  32,   79,
    -45,  69,   8,    80,   -50,  9,    43,   45,   78,   75,   -91,  80,
    28,   37,   -14,  -59,  37,   58,   -43,  -84,  -89,  -48,  -67,  -39,
    96,   16,   79,   -39,  -8,   -80,  16,   88,   -91,  -54,  -26,  71,
    -21,  -54,  -41,  -87,  -62,  -32,  -4,   -39,  -3,   53,   87,   -68,
    72,   -92,  45,   50,   90,   -9,   59,   71,   -89,  -77,  -4,   61,
    48,   81,   5,    -82,  -19,  90,   -4,   -95,  -76,  -2,   -70,  -53,
    85,   -26,  -57,  80,   -62,  -34,  10,   41,   59,   71,   -80,  16,
    -55,  32,   34,   82,   -33,  -55,  -68,  -27,  -55,  44,   104,  76,
    30,   67,   -17,  28,   16,   69,   -73,  -3,   -1,   16,   67,   -60,
    40,   36,   -93,  -52,  107,  -66,  -10,  -33,  -22,  -35,  93,   -44,
    85,   2,    -68,  4,    37,   72,   30,   44,   -69,  3,    -49,  -82,
    3,    67,   -76,  19,   0,    96,   -79,  -53,  57,   -1,   -19,  -28,
    46,   -67,  -79,  33,   55,   -40,  -32,  -14,  44,   59,   -12,  -5,
    -21,  -54,  -3,   -14,  50,   -19,  96,   48,   -62,  -63,  24,   -70,
    6,    -65,  58,   -90,  -92,  97,   -26,  -3,   -77,  29,   64,   76,
    -17,  -83,  -3,   -97,  21,   -21,  -59,  50,   -21,  54,   70,   69,
    1,    90,   -13,  68,   -24,  33,   -10,  29,   -54,  54,   90,   -92,
    -26,  -53,  67,   59,   15,   -88,  63,   70,   18,   -26,  7,    -83,
    96,   5,    29,   -47,  -59,  43,   56,   79,   -4,   15,   -96,  62,
    100,  -28,  11,   40,   -42,  -86,  74,   49,   -30,  -91,  -68,  1,
    92,   29,   20,   -37,  74,   62,   93,   28,   -90,  24,   46,   64,
    25,   62,   76,   -13,  15,   75,   45,   76,   63,   26,   50,   -56,
    -85,  22,   -85,  -49,  83,   -72,  -56,  -47,  -86,  28,   -10,  -42,
    89,   5,    10,   -52,  -76,  -61,  87,   60,   -104, -43,  -26,  5,
    91,   -37,  -73,  -33,  51,   -32,  29,   31,   -63,  102,  37,   57,
    29,   36,   -38,  90,   47,   -14,  -70,  -61,  26,   -53,  -30,  -76,
    20,   31,   15,   61,   8,    -46,  -73,  -73,  8,    60,   44,   -39,
    34,   -13,  69,   57,   19,   -66,  80,   11,   -108, 95,   79,   30,
    4,    40,   -69,  -78,  -47,  79,   -68,  -28,  13,   98,   -52,  -73,
    -87,  59,   33,   -36,  -59,  -90,  -69,  -33,  -41,  30,   28,   -35,
    59,   -5,   -37,  65,   79,   4,    -34,  -84,  30,   78,   23,   -71,
    94,   -67,  25,   -29,  -53,  65,   3,    68,   -27,  26,   52,   32,
    -50,  34,   -106, 21,   29,   71,   -42,  -30,  -28,  52,   -18,  -29,
    82,   -86,  65,   -96,  -7,   85,   -26,  22,   -20,  56,   -60,  14,
    -44,  98,   -9,   33,   -20,  24,   48,   82,   19,   22,   79,   54,
    -8,   -38,  -100, -1,   45,   -43,  13,   -49,  -105, 37,   -71,  -13,
    88,   46,   26,   -42,  -73,  -31,  -55,  22,   11,   -45,  42,   -87,
    -1,   98,   -68,  42,   -75,  86,   -36,  90,   -8,   4,    -44,  50,
    -44,  6,    -51,  34,   -91,  -65,  -84,  -43,  -46,  -29,  -36,  46,
    -32,  -54,  -37,  -39,  -83,  80,   -81,  17,   -85,  -77,  7,    -82,
    40,   85,   -73,  -86,  -51,  74,   -41,  2,    -104, 57,   61,   -62,
    35,   44,   -2,   10,   -44,  -49,  81,   95,   -7,   100,  91,   -35,
    93,   -18,  10,   -60,  71,   49,   41,   93,   -70,  -20,  95,   -10,
    81,   -94,  30,   -72,  52,   97,   20,   78,   -44,  -52,  -12,  29,
    -79,  17,   -76,  17,   -15,  -63,  -33,  67,   -94,  51,   -85,  -38,
    86,   0,    32,   70,   55,   -81,  -79,  -29,  -66,  -7,   72,   3,
    104,  17,   -11,  59,   100,  -29,  -28,  -83,  -61,  -45,  -8,   46,
    -43,  -78,  -70,  24,   -75,  -19,  83,   77,   -13,  75,   -78,  -73,
    -13,  -11,  62,   44,   -38,  -88,  -69,  -39,  43,   45,   -92,  -81,
    8,    67,   -43,  59,   73,   33,   47,   -98,  -95,  -18,  17,   85,
    61,   -102, 8,    4,    43,   -75,  94,   28,   33,   28,   -27,  31,
    -64,  -1,   -58,  49,   -26,  102,  -31,  -73,  32,   32,   62,   81,
    -46,  88,   -64,  -26,  -85,  26,   90,   -100, 50,   67,   -74,  87,
    68,   2,    -57,  -43,  -10,  61,   47,   -37,  -34,  -40,  31,   -46,
    16,   76,   -95,  -93,  -17,  -25,  -31,  0,    -40,  71,   -33,  -69,
    -74,  -10,  85,   -11,  -93,  -48,  -13,  -5,   -64,  -67,  75,   -75,
    46,   -63,  84,   -53,  -66,  -75,  -65,  -66,  41,   -2,   -65,  26,
    -47,  -94,  -84,  17,   -43,  -79,  83,   21,   16,   82,   70,   92,
    -78,  -12,  -22,  33,   -33,  93,   29,   -11,  78,   33,   75,   5,
    70,   -97,  54,   33,   -26,  87,   -59,  92,   -31,  -59,  -79,  66,
    -81,  72,   -53,  -77,  8,    31,   -1,   79,   46,   -88,  28,   78,
    64,   -63,  -69,  59,   -68,  91,   -76,  -41,  -30,  -24,  81,   -64,
    4,    32,   67,   -31,  -61,  -14,  7,    -68,  45,   50,   -54,  -9,
    -20,  -30,  -16,  11,   7,    -80,  83,   10,   64,   -63,  -6,   40,
    13,   -30,  20,   28,   11,   -40,  17,   -41,  -63,  71,   39,   56,
    7,    83,   60,   50,   47,   -71,  23,   -25,  39,   72,   -37,  -71,
    -55,  58,   15,   -96,  -82,  -43,  21,   -17,  13,   -9,   31,   28,
    4,    50,   20,   -6,   -13,  64,   -80,  76,   28,   15,   87,   -95,
    99,   -9,   -58,  63,   -3,   -70,  71,   62,   36,   56,   -2,   63,
    26,   -58,  -21,  -13,  55,   -27,  -22,  86,   -78,  47,   -13,  1,
    109,  -82,  -64,  -71,  31,   70,   103,  -100, -106, -101, 42,   55,
    -22,  -32,  -47,  -54,  -96,  67,   -1,   -56,  51,   66,   -1,   66,
    -9,   77,   -86,  31,   -39,  17,   53,   59,   -15,  -44,  -9,   -75,
    110,  -94,  70,   -36,  -33,  -80,  45,   57,   -65,  79,   32,   77,
    -58,  66,   -10,  -6,   -45,  -105, -66,  -41,  70,   43,   1,    2,
    84,   -7,   7,    -71,  68,   -63,  -8,   51,   -50,  -8,   -108, -68,
    101,  40,   75,   -23,  -16,  -55,  110,  -79,  -66,  -43,  18,   34,
    84,   -37,  65,   -44,  14,   53,   108,  -91,  -96,  -25,  -25,  -73,
    -39,  78,   -3,   -27,  36,   -65,  -5,   38,   -76,  -48,  68,   49,
    -27,  -50,  77,   -68,  95,   -11,  -4,   53,   52,   -90,  -11,  84,
    70,   -47,  -48,  -2,   16,   -68,  37,   -4,   -53,  -71,  79,   11,
    74,   -96,  -78,  56,   36,   100,  59,   -70,  -39,  2,    44,   -24,
    49,   -96,  -80,  -89,  -34,  -38,  -80,  15,   -69,  -80,  -45,  3,
    -76,  -69,  -37,  76,   -85,  -72,  -26,  21,   -48,  46,   49,   29,
    4,    -78,  -8,   74,   -80,  -34,  44,   -53,  -103, -85,  -35,  9,
    35,   -10,  -108, -11,  86,   -47,  -71,  4,    -3,   -68,  16,   30,
    47,   30,   71,   -47,  88,   -52,  -8,   83,   17,   -100, -22,  -44,
    47,   -75,  -15,  -12,  -78,  -61,  31,   -9,   77,   30,   -77,  6,
    17,   -54,  -11,  30,   -29,  90,   -57,  -26,  66,   73,   15,   80,
    -48,  1,    -63,  43,   83,   9,    -38,  -50,  -110, -55,  -9,   34,
    -4,   84,   79,   -78,  -63,  15,   38,   83,   27,   44,   55,   6,
    -36,  -2,   59,   -16,  93,   68,   41,   41,   -102, 46,   40,   -74,
    21,   -44,  -23,  -95,  40,   16,   -43,  45,   8,    47,   94,   56,
    7,    -74,  -2,   -19,  -5,   -55,  97,   66,   -106, -68,  66,   -65,
    -55,  35,   20,   34,   65,   19,   84,   -11,  74,   -97,  47,   44,
    103,  -26,  -63,  27,   35,   19,   -49,  15,   -44,  71,   -59,  102,
    39,   -83,  -6,   11,   86,   -84,  19,   -52,  -33,  24,   96,   -37,
    100,  17,   52,   -64,  73,   93,   46,   42,   -11,  81,   -54,  -3,
    -15,  7,    -85,  -6,   -42,  11,   77,   -93,  -9,   -23,  97,   -34,
    22,   28,   35,   14,   87,   44,   70,   -46,  53,   2,    74,   35,
    -27,  14,   61,   26,   60,   -40,  -5,   8,    -33,  7,    3,    -69,
    -42,  -7,   79,   -6,   61,   102,  -18,  61,   -101, -72,  -55,  23,
    -13,  69,   4,    79,   49,   42,   -43,  27,   -56,  0,    60,   -84,
    -65,  -37,  38,   -43,  5,    -76,  0,    -57,  4,    -34,  11,   -89,
    69,   37,   -37,  -78,  -16,  -79,  83,   76,   64,   100,  40,   -20,
    84,   33,   -5,   26,   -7,   -65,  -6,   -95,  -22,  -63,  -34,  8,
    -36,  -68,  -87,  -12,  -5,   -61,  17,   -39,  3,    -19,  29,   -13,
    -17,  -85,  0,    -32,  56,   -80,  97,   58,   -94,  -66,  -25,  30,
    33,   89,   -59,  0,    -22,  -9,   -38,  82,   -94,  12,   69,   59,
    5,    -29,  52,   70,   6,    15,   63,   45,   -42,  -40,  67,   29,
    -38,  -24,  58,   101,  24,   67,   41,   40,   -103, 56,   13,   69,
    99,   56,   -105, -5,   -6,   -19,  -67,  12,   10,   86,   81,   -16,
    1,    -34,  -43,  -40,  -23,  -30,  20,   72,   -79,  72,   22,   58,
    94,   -7,   -19,  28,   56,   -30,  110,  29,   -8,   81,   45,   68,
    -33,  -42,  60,   -17,  78,   25,   7,    24,   79,   84,   -47,  7,
    27,   48,   -87,  -86,  -37,  -107, -37,  53,   -46,  19,   53,   -25,
    24,   -39,  -84,  63,   -29,  57,   -58,  -39,  -11,  82,   -91,  -65,
    -68,  -28,  52,   -40,  -91,  -75,  -12,  63,   -88,  -77,  -14,  59,
    81,   -39,  -20,  -2,   9,    28,   -38,  -89,  -70,  4,    11,   -45,
    84,   38,   -94,  94,   50,   22,   -7,   -69,  -29,  -14,  -50,  -57,
    -52,  -73,  43,   89,   22,   24,   -25,  26,   47,   -64,  -62,  -36,
    15,   -89,  -60,  -73,  -20,  -76,  -39,  -6,   -70,  44,   84,   -40,
    54,   -36,  -61,  -77,  -34,  -87,  -49,  65,   73,   -28,  -56,  -28,
    102,  -43,  -105, -1,   -59,  -25,  -47,  85,   68,   -75,  -15,  74,
    64,   3,    65,   53,   -96,  -64,  36,   -87,  -13,  -23,  63,   -23,
    -80,  80,   -1,   56,   -55,  -69,  93,   -27,  9,    -36,  -77,  -3,
    -8,   -7,   -28,  0,    -72,  104,  75,   -53,  -72,  10,   76,   -51,
    -72,  51,   71,   -10,  -85,  43,   18,   -69,  -26,  -18,  8,    37,
    -18,  17,   -5,   -53,  -4,   -36,  61,   1,    40,   9,    3,    -36,
    44,   74,   -111, -50,  79,   -67,  12,   -50,  -103, -55,  -5,   3,
    83,   1,    -39,  -40,  -82,  34,   1,    3,    -89,  5,    -46,  -19,
    -48,  -34,  53,   38,   103,  51,   96,   -22,  -79,  -79,  6,    32,
    91,   -48,  -99,  42,   -47,  -61,  -8,   30,   6,    -34,  86,   78,
    -29,  -95,  -41,  -79,  -69,  -36,  -65,  -27,  16,   56,   96,   -15,
    -23,  62,   -108, 6,    -12,  -16,  69,   5,    6,    -99,  37,   63,
    101,  26,   -88,  45,   46,   77,   -25,  69,   -35,  -99,  28,   25,
    -27,  -58,  22,   55,   72,   -56,  -3,   -88,  -80,  -9,   6,    -73,
    -76,  -9,   54,   69,   -47,  -24,  -12,  23,   -28,  -50,  11,   -45,
    5,    -24,  -84,  41,   16,   -23,  -52,  -23,  -96,  25,   41,   25,
    -18,  -21,  9,    -75,  -57,  -51,  97,   -20,  -82,  47,   97,   74,
    -60,  -67,  46,   47,   -2,   26,   -43,  37,   -43,  -103, 34,   -39,
    -33,  74,   75,   -97,  -21,  52,   -41,  62,   -88,  -53,  80,   -57,
    7,    -56,  -6,   22,   -27,  -72,  103,  82,   58,   -2,   -8,   87,
    -1,   -88,  -28,  52,   28,   19,   -18,  45,   86,   12,   -58,  -14,
    54,   89,   -66,  -65,  -71,  58,   35,   87,   49,   3,    -48,  60,
    7,    9,    -9,   -63,  95,   51,   -32,  -91,  -2,   14,   59,   68,
    36,   -51,  -6,   -35,  58,   12,   18,   -68,  -99,  -68,  -19,  -87,
    -72,  80,   -56,  -42,  72,   -56,  93,   44,   77,   51,   44,   21,
    13,   30,   -37,  82,   -2,   19,   95,   71,   34,   -33,  -8,   38,
    -28,  -57,  62,   -73,  -78,  -14,  66,   84,   -94,  100,  -96,  -96,
    -50,  -66,  67,   18,   -84,  39,   67,   18,   -59,  9,    -61,  18,
    39,   71,   -28,  -2,   -54,  57,   -36,  6,    -87,  0,    -5,   51,
    -27,  50,   66,   52,   -39,  -10,  74,   84,   -30,  -20,  47,   -69,
    -39,  -79,  -50,  55,   92,   -2,   112,  -54,  62,   25,   55,   -72,
    -37,  -66,  -5,   -52,  29,   -80,  74,   -98,  -67,  -61,  -75,  45,
    47,   79,   -1,   77,   3,    48,   19,   -71,  -66,  17,   -38,  21,
    -23,  42,   -28,  60,   -74,  71,   59,   -92,  -50,  -88,  97,   90,
    21,   -24,  66,   -19,  -48,  65,   -45,  31,   44,   -86,  -26,  -13,
    -38,  74,   -92,  39,   -33,  -79,  93,   -75,  -24,  74,   50,   -52,
    -73,  69,   42,   -49,  -69,  -22,  43,   8,    -5,   13,   92,   19,
    -22,  -62,  -58,  64,   -24,  26,   57,   -89,  18,   18,   49,   -36,
    -45,  56,   -34,  91,   -47,  -44,  -44,  -62,  -16,  -75,  28,   -58,
    -11,  84,   -3,   -15,  62,   -67,  9,    -45,  40,   5,    36,   45,
    -67,  51,   -103, 35,   95,   -52,  101,  55,   12,   -9,   -82,  65,
    94,   70,   -88,  46,   -86,  82,   -77,  -47,  6,    33,   -81,  25,
    75,   12,   53,   -45,  -30,  2,    -32,  -81,  43,   -93,  -101, 96,
    83,   -22,  -31,  29,   1,    -15,  16,   31,   -33,  18,   -88,  20,
    60,   -3,   50,   84,   -48,  -80,  -53,  -27,  35,   -45,  -24,  9,
    48,   -73,  -41,  -18,  83,   -32,  3,    1,    72,   34,   -24,  -59,
    65,   -95,  -67,  -100, -46,  35,   -43,  -83,  -61,  -37,  -54,  47,
    73,   42,   -81,  35,   -91,  14,   97,   -48,  -23,  -89,  -12,  79,
    -4,   -67,  -35,  44,   -53,  -8,   17,   -18,  80,   31,   72,   -90,
    -34,  -12,  -83,  27,   -47,  -9,   -12,  -95,  -36,  10,   -79,  -21,
    33,   -50,  57,   18,   86,   51,   -24,  -13,  42,   81,   50,   -7,
    72,   20,   46,   4,    -50,  31,   -75,  81,   56,   -68,  88,   -43,
    -20,  77,   81,   92,   -62,  -51,  -56,  -94,  -50,  -23,  6,    -41,
    16,   45,   2,    17,   -20,  -97,  100,  -87,  10,   -57,  70,   -76,
    52,   20,   22,   49,   37,   -27,  -64,  76,   1,    74,   -76,  17,
    60,   -14,  82,   -74,  62,   29,   -13,  82,   -97,  27,   87,   19,
    66,   31,   -42,  -65,  27,   31,   90,   65,   70,   72,   34,   -94,
    40,   -93,  -16,  54,   -59,  21,   41,   -53,  33,   -1,   -51,  82,
    -21,  -72,  -6,   -16,  46,   51,   -2,   21,   71,   -51,  61,   30,
    70,   23,   72,   106,  8,    -69,  104,  -76,  -40,  -9,   -87,  51,
    -41,  -56,  57,   -62,  85,   -55,  87,   -34,  17,   3,    -73,  55,
    -78,  -81,  -101, -23,  50,   -10,  -60,  -76,  -5,   -2,   79,   19,
    -17,  88,   -24,  83,   1,    43,   -2,   -47,  -15,  -62,  -48,  -36,
    76,   83,   -81,  103,  13,   -3,   73,   68,   -5,   -7,   -38,  -40,
    -48,  -84,  4,    -7,   25,   70,   -60,  87,   39,   -9,   -43,  49,
    70,   -36,  69,   -20,  -59,  -20,  1,    -41,  -71,  50,   14,   -91,
    -5,   11,   -60,  -85,  -45,  -52,  97,   -5,   20,   15,   2,    -23,
    -33,  8,    44,   -60,  -13,  -73,  23,   -20,  -26,  -79,  77,   -50,
    57,   -28,  48,   83,   -87,  -10,  68,   27,   36,   -38,  37,   10,
    44,   22,   51,   -9,   79,   5,    -12,  14,   31,   -9,   61,   78,
    -31,  85,   -35,  -80,  28,   -11,  12,   -93,  -79,  -77,  -88,  -98,
    28,   -31,  31,   -6,   -83,  89,   -2,   -92,  -3,   54,   23,   -93,
    87,   -13,  52,   -2,   -55,  -95,  -86,  -65,  55,   90,   61,   -25,
    -71,  -43,  -57,  -18,  -44,  33,   61,   48,   -107, 79,   67,   54,
    72,   43,   -43,  35,   -58,  -60,  -81,  -44,  -26,  5,    47,   73,
    64,   76,   -92,  -81,  -76,  -66,  37,   7,    48,   80,   88,   1,
    60,   -5,   54,   -84,  -7,   79,   58,   45,   -42,  78,   -90,  -51,
    -77,  -76,  76,   26,   90,   -60,  78,   81,   -97,  22,   -51,  -24,
    -32,  66,   49,   -38,  9,    88,   12,   64,   -80,  4,    -44,  75,
    -78,  -19,  25,   36,   -9,   86,   -78,  -86,  61,   -41,  -59,  -68,
    51,   -62,  33,   71,   -41,  -44,  -43,  30,   64,   -8,   -4,   83,
    88,   29,   -30,  0,    -38,  65,   -46,  -46,  -21,  -54,  38,   -17,
    -8,   -46,  -67,  42,   -76,  81,   -71,  85,   -9,   -25,  4,    80,
    20,   -98,  32,   -13,  -82,  -83,  54,   -7,   -91,  72,   75,   33,
    -67,  -5,   -23,  4,    97,   -8,   91,   88,   -96,  -102, 76,   -6,
    54,   -98,  -50,  -86,  90,   -32,  -48,  81,   -39,  -28,  48,   32,
    4,    -68,  -84,  34,   11,   67,   69,   -50,  40,   -37,  92,   -101,
    70,   13,   -2,   -25,  -73,  83,   89,   -18,  86,   -51,  -26,  52,
    53,   -15,  -29,  -4,   -66,  -30,  82,   -71,  16,   -12,  10,   71,
    90,   57,   -6,   30,   -57,  -74,  22,   51,   50,   -32,  -61,  75,
    -75,  -18,  -24,  72,   -43,  6,    59,   -19,  41,   39,   -64,  -14,
    28,   -84,  32,   -87,  75,   68,   98,   -73,  -31,  48,   -84,  87,
    -45,  -7,   -1,   84,   -50,  -16,  39,   -74,  -21,  -44,  -39,  32,
    28,   20,   -11,  29,   -81,  -12,  -32,  -34,  13,   -40,  30,   26,
    11,   41,   -48,  8,    -7,   -39,  -57,  88,   83,   -73,  10,   -13,
    -68,  2,    9,    40,   -40,  11,   42,   -25,  -22,  -67,  33,   89,
    -55,  59,   33,   62,   -92,  73,   31,   75,   -89,  -40,  58,   57,
    86,   -82,  84,   75,   57,   3,    -27,  26,   20,   -61,  30,   -12,
    8,    -91,  72,   28,   32,   93,   -49,  -9,   20,   26,   16,   92,
    86,   51,   43,   82,   -30,  -74,  5,    57,   -25,  46,   13,   -23,
    55,   36,   -30,  61,   -23,  -37,  1,    30,   -56,  0,    -50,  -9,
    -58,  -3,   17,   69,   13,   -23,  -8,   74,   -2,   43,   23,   48,
    68,   4,    81,   89,   76,   35,   21,   -83,  -67,  -62,  49,   -33,
    49,   87,   44,   -27,  -60,  58,   19,   -88,  -98,  83,   -79,  26,
    -57,  25,   -57,  -8,   41,   69,   39,   -78,  13,   -13,  -30,  33,
    -13,  59,   -28,  -44,  66,   -63,  45,   -79,  84,   86,   -73,  -30,
    -45,  -59,  -90,  46,   30,   43,   -18,  27,   -90,  92,   -22,  -31,
    -52,  -80,  -95,  69,   -49,  -93,  -50,  17,   41,   62,   87,   -29,
    -13,  39,   -73,  58,   -34,  82,   -55,  -73,  -4,   15,   -32,  -92,
    14,   57,   -71,  -43,  47,   -45,  -64,  -27,  69,   101,  -81,  -12,
    93,   77,   -90,  63,   -28,  51,   -70,  -34,  -93,  -70,  29,   45,
    10,   65,   -38,  79,   17,   -11,  41,   57,   67,   1,    42,   -30,
    25,   -69,  73,   51,   59,   -48,  12,   59,   37,   17,   29,   -84,
    -6,   85,   -41,  -30,  68,   -90,  29,   -85,  -39,  -3,   -52,  -63,
    -6,   -57,  19,   -41,  22,   -86,  83,   -67,  -69,  26,   92,   48,
    -8,   -74,  87,   -84,  17,   91,   -8,   -34,  64,   -31,  93,   18,
    -78,  -42,  66,   35,   33,   80,   -57,  52,   -61,  20,   -12,  -83,
    -75,  -85,  21,   44,   -41,  -88,  21,   5,    34,   -52,  -43,  -2,
    -35,  -51,  44,   -50,  -55,  24,   36,   -98,  -79,  -31,  21,   54,
    -26,  -18,  -16,  -94,  -74,  -72,  24,   -72,  26,   24,   88,   27,
    107,  10,   -86,  54,   -35,  32,   106,  -89,  -15,  72,   35,   67,
    -18,  -70,  57,   37,   48,   -86,  -75,  -96,  -41,  44,   -35,  -82,
    -28,  -39,  -82,  22,   -18,  49,   -22,  41,   -99,  57,   -77,  -61,
    33,   -20,  46,   49,   -31,  -65,  85,   70,   -86,  81,   -8,   8,
    21,   51,   16,   -50,  -11,  78,   36,   -42,  53,   36,   38,   81,
    92,   -49,  -10,  -62,  88,   83,   81,   34,   -31,  -26,  101,  -45,
    21,   27,   -15,  22,   11,   -40,  -29,  -6,   34,   -26,  -14,  70,
    48,   -66,  18,   71,   98,   -86,  -82,  8,    -94,  88,   78,   -50,
    16,   13,   -97,  80,   -32,  -43,  87,   54,   80,   -30,  21,   -3,
    74,   21,   -87,  -34,  93,   32,   -34,  10,   -11,  60,   94,   -48,
    34,   44,   36,   92,   96,   66,   50,   83,   21,   -10,  36,   6,
    88,   -56,  53,   -2,   42,   -73,  16,   -20,  -67,  -71,  -42,  -50,
    76,   -29,  33,   86,   58,   94,   84,   -51,  62,   84,   58,   -71,
    35,   -78,  -90,  -39,  -92,  -30,  41,   74,   7,    -63,  74,   -55,
